{"arch":[4,32,32,2],"act":"relu","W1":[[0.1710411130139106,-1.1545448396220912,0.5442323805624318,0.5688032859170251,0.8457002729286484,0.36714813541040037,-0.9611134098825983,0.6836651862203207,0.28406925404589184,0.5823224133699398,-0.11326338433703302,-0.30863833021518144,0.9003325361707508,-0.9472524103253932,0.17937166797948983,-0.506208718956672,-0.8642830183609262,0.07680023772982515,0.7097069626043101,1.3795997453818598,-0.4792862562747036,0.1699051540706433,0.2120754823099534,-0.38626955695787396,-0.7684060405705087,-0.4093277108192959,0.7139585991515538,0.7243763794146566,-0.26946516785910524,-0.3368016480301193,0.546400983199826,-0.7569391063247033],[-0.7813581179886988,-0.1723006567949201,-0.5685064862881669,0.1720010712684678,1.0058986245761345,0.0019181626493938193,0.02612524835203925,-0.4043448693677073,-0.328784701919811,0.5617618104731031,0.9749042035574877,-0.4673301704261372,0.6365169839240932,0.9574909322511788,0.26300554603235765,-1.0091344051942475,0.0781022133281479,-0.9074269990751326,-0.3251331442117066,-0.0744189912746484,0.18226993563310656,-0.10014612488747748,0.1284593932772281,-0.18110776821294297,-0.1372156372324368,1.351904090269185,-0.1588570971922936,-1.2794093841839076,-0.8680305329084071,-0.44089051511314464,0.4245311785595075,-0.749386767458285],[-0.2710366744078782,-0.4590958429493452,-0.2242497059078277,-0.4209104435873193,0.2706534889408453,0.13447632840642032,0.1831681805680427,0.9436970328683209,-0.0002939974645415471,0.40003874348683266,-0.5946086474891346,0.19033332624367702,0.27654565744115583,-0.24327320606432315,0.12737664876779953,-0.16332212277517733,-0.38745736657170615,0.2580532701160977,-0.328905008237028,0.3908033328724658,0.8540255303294131,0.582555787703566,-0.4560486833061797,0.19551461830289335,0.11748021280257885,-0.1406102223577079,0.6311693284967024,0.24065082842874214,-0.23359803280594216,0.5703321410754022,0.8274342930752073,-0.1058900789645141],[-0.39981830516505085,-0.04071068972473381,0.2593588846094916,0.22893721753790042,0.3873616199940964,0.5025818330325307,-0.40876437311396163,0.2854328295916536,-0.9465900608618552,-0.0810123352048068,0.25344924179396167,0.2898880239247956,0.09294326730524505,0.09634422189898818,-0.3728300970830818,-0.1191077162544836,0.02273741681584066,-0.08769517734458192,-0.48907954861756414,-0.028826385963905805,0.33302080013421237,0.7646691118219956,0.6220581177635279,1.317490854235941,0.02115278472289259,0.24263804952238036,-0.27632834242045967,-0.42873190515223364,-0.25077518303156743,-0.25878022743412327,-0.24592782176645936,-0.1382624393214946]],"b1":[-0.2639548297935672,-0.41906979983994724,0.19955218905469643,0.5032893718267366,0.3963963112812555,0.24212605849690166,0.2911383295706086,0.024608796530294665,-0.12450298434871103,0.6551521852695127,-0.4955444410069017,-0.11604070000320407,-0.44170227501155906,-0.38083776811813924,0.40241628366172877,-0.49443252777981483,-0.2723074398445139,-0.018858987778286363,0.23484767963699313,0.05833111706151291,-0.42568975010083515,-0.10752514508544245,0.5484451853671186,-0.13664548987514502,0.0011978689775954717,0.11711594409498977,0.16418552608830897,0.19417373934839444,-0.31940502209681254,-0.3361311720802536,-0.20402892048015248,-0.6809379575540282],"W2":[[0.026520123641579206,0.2641857534204542,0.1558838921173858,-0.1425311480843767,0.08728458133375466,-0.33392919614719435,-0.057820036293157316,0.01817453357079158,0.14953164263086058,-0.34289698508696054,-0.22748289127967505,-0.1567345102938187,-0.19328481550695537,-0.07658629119634423,-0.1494572138292497,-0.35457137720667264,-0.049256255181983497,0.00953272413137206,0.20708948992560833,0.17656571125627007,-0.24810095835529522,0.016989649939092126,0.11861338516234353,-0.1562714788530329,0.11389457582803214,-0.4364114127790684,0.17886962361461117,0.44525918574005047,-0.21808446170235318,-0.2537589629191495,0.024690903861516365,0.15969307075971306],[-0.2635588234196315,-0.6745081785609544,-1.1690268847469485,-1.038929369543627,0.09901263980707019,0.48709405396699856,0.019776669977651245,-0.2705831880859599,-0.35204735557736794,-0.18746028898062442,-0.26175589472156613,-0.9665348308408797,0.06631290734325151,0.17822362419313229,-0.08744556823692472,-0.3021726062905342,-0.06041719761360759,-1.6005364047112431,-0.04924436286669815,0.10960794039794498,-1.0271818763270801,-0.08123243728072022,-0.6328860733712814,-1.0746308942676186,-0.1483809118946803,0.2144258402012116,0.5937538502763519,0.22056406012895996,-1.208936275126414,-0.838601692785795,-0.6338451446207354,-1.2246376192007618],[0.08958053528086511,-0.4520468305904534,-0.2163817264468237,0.061605744203778214,-0.18887718835792683,0.08464141651133036,0.010182668104479568,0.1549719837719928,-0.05202970118678324,-0.0179713931858349,-0.26650970613909386,-0.8385313708396871,-0.15355322659721202,-0.0935602187381872,0.13013950863327275,0.3045636662286629,-0.7841896601821559,-0.0030512476778083316,0.3816041598600376,0.012245432320459696,-0.3212794141111227,-0.10974566399933994,-0.3480582123039753,-0.5075780150045938,0.42862390264083444,-0.1466467002329173,-0.5120360358746906,-0.17150187595906627,-0.27794424308457116,0.3317821182139207,-0.09433820162343408,0.15986155031799024],[0.0680975379259278,0.456068247162194,0.22921981738267996,0.08642333155770845,0.15433476601200294,-0.027188653034447077,-0.14040373519408025,-0.025119403702974163,0.07918960258802712,0.14100779320560286,0.1408302160093109,0.1518094477343565,0.1882920554543277,0.12259465473359205,-0.2847071066190827,0.028978778221506914,-0.36845976638098676,0.0785809421476154,-0.05002805877928863,-0.3134688093843852,0.16019708262625534,0.12739605687274375,-0.030110296412495335,-0.8429595033170553,-0.21776569915328564,0.2613933895306867,0.22152181816484603,0.021695677314269808,-0.0810710260518299,0.1627519743237513,0.3427660675405949,0.11999996597267326],[0.053816089972606895,-1.251992616757172,0.35079367581373044,0.092499374859842,0.3580387282613996,-0.19325884486690137,-0.07041788469244599,-0.18366153087748754,-0.522205681917407,-0.038008331662990724,0.10375116899507976,-0.08585041633860531,-0.4206369121290585,-0.08713279656932355,-0.10072006349234583,0.14716915122894564,-0.34549587491854933,-0.3622860568092855,-0.16472633800864078,0.36020075512513827,-0.6421233172791339,-0.211031746313804,0.12287665631676675,-0.30433035006926223,0.11109777289661794,-0.26896443231239414,0.18959869359403572,0.02051604090592974,-0.5545078653365779,-1.1990298437447795,0.01971285624353184,-0.17771213839679473],[0.12212303724992062,-0.09904709868856895,-0.18565982896477967,0.12054129171182248,0.08591354177745053,0.12349793574765197,-0.15081357168286494,-0.11641371547444722,0.03518396658472462,0.08695676515367858,0.23636590279687517,-0.5950624410387063,0.07591423701597405,0.08715605751478861,-0.11938203728762875,-0.03906616677050336,-0.5493532896689322,0.09783252778252502,0.11721990958511985,0.07630321027952633,-0.10915223560540054,-0.20905208986773716,-1.4483717076855334,-0.04306266273867814,0.1433616214047838,-0.014573531766406432,-0.38767180751080854,-0.3758626245098515,0.12467388786497005,0.27588235013990897,0.31309751399695634,0.13866795495744696],[0.17026222355395804,0.2949461684667819,0.18261198139629342,0.038756841086110674,0.3663360998571614,-0.15066793184206675,-0.005005445195995607,-0.001688825376887959,0.4469378205656232,0.004625052380490479,0.1360946095983847,0.3148743927746878,0.13595674160947338,-0.03268301226473954,-0.1743242608692783,-0.2339083652837098,-0.11643451074800712,-1.0987985080456575,0.2225658838327551,-0.45997269950562947,0.23431071750646212,0.29993032710510387,0.3718701809317821,-0.14010988692422557,-0.055566100474068056,0.4391878751411857,0.31862182960752766,0.13918923625392757,0.279879711649074,-1.2387297479513442,-0.1318675601632375,-0.21137666627462506],[-0.2262081829296845,0.1904553293064054,0.05903999442179441,0.12961155908730507,-0.10454200247100874,-0.11735259278893076,-0.15169351787443577,-0.4822959161049468,-0.3264942647596839,-0.06461760622017243,0.1349402291061991,-1.0044902614686444,-0.17576111216997964,-0.11941879981636014,-0.40291457261187535,-0.25916461257212065,-0.1891768787407269,0.07953629065458608,0.01884952439173824,-0.4333401990312947,-0.5497934653778331,-0.3363732454431067,-0.8442000035835311,0.028962075862051878,0.24676894422780074,-0.15272831327430209,-0.681542657670326,-0.19168979667389144,0.09059732050880108,-0.07254474412109589,0.2761976698465477,0.2779448963236512],[-0.19766514167716195,0.4920334002746912,0.1160813626403289,0.16619181683470127,-0.19898225743771542,-0.36457509508509234,-0.21429417163184633,0.03810036939395133,0.12326871571631168,-0.012123804330755225,-0.04888386037162706,-0.23522798443597856,0.12255018526399862,-0.2091131210136754,-0.01793306044531817,0.14597147037729866,0.4954511993973503,-0.28098091383556817,-0.4079266052482417,-1.0867484598535941,0.057519933414714716,0.20433918251617278,-0.1675870545279439,0.15065383829611584,-0.03604128048877885,-0.6877876724736263,0.16702634953352785,0.17627802151475094,-0.12772304671726245,0.04073228693151442,-0.10006029079303114,0.06805570337936458],[-0.03428367630109626,-0.8169513707224888,0.13447031270538498,0.27130627581875755,0.3163900018934125,0.28780533104495776,-0.10245402931386367,-0.5176745619588651,-0.576567942848751,0.14522894219436588,0.07123691051540804,0.019973552201753675,0.12985716173338638,-0.007906734830656431,-0.09816644413063168,0.29123288647945494,0.3069063288078588,-0.03855392975274247,-0.044522311036196346,0.12216638648821902,0.2871864053758865,-0.23819314479087822,0.19153919254306312,0.12495168376135544,0.3118502896335212,-0.36277892349320406,0.10944483587468766,-0.1397044291761845,-0.20297819950532223,0.42259127072232394,-0.22977834186346016,0.03840299941255773],[-0.16162141194563553,-0.429343061844479,-0.4841849276910616,-0.184149601648402,-0.29744666277618087,-0.11484678162174759,0.06781445398449004,0.32408454747631954,0.20197474735028612,-0.13004483541621958,-0.2611074355522339,-0.48735629370322575,-0.23391507301285042,-0.03525666882528769,-0.25371499060971364,-0.15063579304552233,-0.09003608551705727,-0.2745571623803774,-0.08011608263436432,0.36940224379533665,-0.07019011478360844,0.035600696091400534,-0.3837672557519636,0.5881404833538687,0.37444206830466026,-0.44540754131037086,0.06631647904203451,0.3238681541194445,-0.1899315354692931,-0.9647168456219253,0.4698394014731636,-0.133028329561643],[0.09814096106478795,0.22210952026803263,0.015388504359234412,-0.14501506594755856,0.315969751939573,-0.09070171883425464,0.11695056848116774,-0.17480302575638748,-0.6022485470048325,0.09590046252632776,-0.12394138937978881,-2.064388467138476,-0.011877470610241322,-0.03024513668364774,-0.03455045030135104,0.03727155156043049,0.04792177914721254,0.0683779220762627,0.1452831598377095,-0.08795496107300509,-0.2233887589526369,-0.46056174559378354,-0.6061821056646622,-0.2308708981022961,-0.5734707960315839,-0.03152442368696598,0.15043615627513116,0.28582537422882365,-0.08395841118970737,0.3163850841876717,-0.19430325463747877,0.41741380598571637],[-0.2535373793726333,0.23856152749533938,-0.10833283471109005,-0.2899201606034148,-3.656152141406912,0.10109800636575775,0.1696392002632646,0.6354428943485313,0.24016080746437476,-0.10167114527654517,-2.132882699795295,-1.3341008508543515,0.13690294256062993,-0.23697495459903728,-0.21798096370280665,-0.3814394673668622,-0.36425285311656097,-0.3122668200922539,-0.32435433228989796,-0.003366368745855126,0.282492701517331,0.39244149732458866,-0.8927957464287933,-0.050049617339233125,-0.14887765035810097,-0.15562133666679306,-1.8764105870950814,-0.36206573917479,0.4965202825516521,-0.7003805040071712,-0.2023084463388428,0.27148444872798894],[0.12890913896199227,-1.4394082828803316,-0.0584859270790696,0.010921504216748087,-0.21324949563938256,0.25618345145490223,0.020373706259668643,0.2956450676265765,0.12079340594218563,-0.1486947613726662,0.0117189565027215,0.16906984644853046,0.1539051660452589,-0.11663640604181189,-0.16672837730344775,0.01115351746131286,-3.2428168283555054,-0.24735910295330787,0.2048578631990521,0.18207150865940896,-0.18560861824038158,-0.7022462173136643,-0.21232470465782985,0.27451526821880606,0.20278160173702964,0.01173056900516028,0.0725205665728229,-0.1950615888144318,-1.9852208786340317,-0.3370910927977009,0.19385165248585767,-0.6308254552238902],[-0.14588533659736758,-0.5998496547406738,0.16879951118755146,0.22636572606592903,0.19121774249209242,0.16702701588842514,-0.2606918424920623,-0.14137640976727847,0.010699547645736496,0.34346722929610396,0.40370366820398895,0.28490085668698323,-0.19136668670347862,0.08432890490364697,-0.05130924845064014,0.09250904074081992,-0.21554022798954747,0.24925288378703314,0.3545398182562539,-0.09357104053011936,0.3537309712088149,-0.01927320694541035,0.10871928409828242,0.08343349588230838,0.17948348858540808,0.28470992283385366,-0.08811954498339296,-0.3349861409638244,0.13989893092463487,-0.11782632622506496,0.11416451541878257,0.051983024848998964],[-0.20942710462803651,-0.0510032410784835,-0.023534216243524187,-0.12859434403271386,0.132656917406955,0.11185962845582037,-0.13693154051536016,0.33529206718238536,0.18886152087595684,-0.18051744335204162,-0.21962813405428405,-0.041707397420685986,0.21743086512745172,0.05360825630162398,-0.04254367590544513,-0.011944027060028912,-0.21962491711458174,0.21339858036096282,0.26743575175122863,0.3306015539521158,-1.3026919705166864,0.17674262752582415,0.39656486398199103,-2.332771364343846,-0.2605394102592003,0.16086738540818252,0.18236786825091675,0.13067603575401904,-0.8593723356800849,0.2672255707654118,-0.4233439546871711,-0.10876974060687086],[-0.21440722060579706,-0.6423564592538703,-0.15871880065721886,-0.8175385008663365,-0.16983259424342406,0.09275532132203418,-0.2794934620038001,0.12433037192630378,0.22073963653380177,-1.1109950072626107,-0.17072085239163703,0.050653297175549075,-0.12085197913531194,-0.07071922421767844,-0.09572552882463362,-0.5201217501449198,0.033211469629724565,-1.0143939089067742,-0.0032079341503304173,-0.5991163070602531,-0.10589588431470916,-0.026451149751557577,0.27268283705913465,-0.1803284793104961,-0.08300755531336977,0.3184529394765866,0.48194055972994176,-0.11187820349915656,-0.9490713724015112,-1.2053905249066383,-0.9360144672960101,0.36831296138042613],[0.11714510926125662,-0.34356362744455327,0.16957423480487868,-0.13289423327295596,-0.05029070555197518,-0.1680595688567284,0.1274826448351139,0.03060863548110394,0.16729202628701953,-0.46100784685410845,-0.24235907884610394,0.030859225038470942,-0.17724476912790618,-0.23682521283013058,0.11502731207809284,0.14230128959317703,0.06513140341710498,-0.025203822710315443,0.19795845260086625,0.06409260773193373,-1.2255251479475602,0.15515461972565894,0.09299834131903195,0.26061757858037465,0.18371877268929762,-0.03839149863218615,-0.11285466542324515,-0.21168473189568646,-0.49218607284331456,0.02700821311474197,-0.019116954763816377,-0.08729687609036395],[-0.029486626869939973,-0.23322245290281304,-0.3217879840938363,-0.0008407016173845367,-0.2045856404689104,0.09170344956062187,-0.2550126460871739,0.2747295738955172,0.22504436558332422,-0.051819915331935994,-0.11271984880438805,0.025591111574043455,-0.04035013310190427,-0.13824306609492892,-0.04367283412226892,-0.17921789082816042,-0.48401584283487964,0.1131656447481871,0.02613049714327682,0.16619233913969175,0.06311301941981805,0.017893320491344105,-0.4784697693425076,0.11180978001133049,-0.08834686856912922,-0.13564299776159341,0.14605485568406085,0.15018028329489133,0.0374692735612616,-0.02208818402556701,0.16905153920026655,0.30806106963871516],[-0.03438702647035541,0.19113553498079744,-0.0698380624750513,-0.015200153462321243,-1.0021622123015672,0.23032611032893371,-0.21213323575018955,-1.406088558270056,-0.9623738838534094,0.19968609921506808,-1.7189926246916738,-0.23625564293954246,0.19091606629912491,-0.21993708609134754,-0.15723450989671411,0.08906078456413355,0.25799213369752183,0.0998602520397288,0.044828827273534676,-0.608752008540603,-0.013611540429257446,-0.4307294379924466,-0.5061882163970409,-0.4559442341770931,0.16909149203702087,0.24426254765449776,-0.8718319773544781,-1.3332388407108096,-0.23410769386334965,-0.36636556501171313,0.14027662123532036,0.04011705238201008],[-0.028603997287306226,0.09802089305938694,0.06987025313140714,0.13619745882681655,-0.01174463108047742,0.29864720656871935,-0.05493044806439066,-0.21550726308783727,0.38423546726955826,-2.0651156172306613,-0.6908109326191095,-0.1288516072339233,0.13707482769917373,-0.1447910665975842,0.05295195086268475,-1.2537672510537925,-0.08984940623862021,-0.3311713194222941,-0.3851267546336739,0.2509202041672869,0.07447145489922904,-0.734219079466141,-0.02925546021551694,0.11089976393671236,0.14507885568651643,-0.1243460808047664,-0.12186687342782448,0.14521026622333308,-0.6434641945829347,-1.5636641545172414,-0.015702873393415792,0.5292016766837483],[0.16860326016324756,-0.11934110362514512,-0.17311828940018636,-0.2723328080760586,-0.1166305234416819,0.3715653233313387,-0.0402402016193221,0.08374019777587012,0.04380947336414939,0.19810300563625755,-0.27542740028671897,-1.3626788333222557,0.4124441393342038,-0.05110049238479719,-0.07526535735438358,-0.01731629187934885,-0.18442080933174962,0.09614128432764965,-0.17877515598784302,0.0397866227210453,0.07955435233607058,0.14222730350803656,-1.2856594420271468,0.4134634966390903,0.1887812519438769,-0.06118479556150766,-0.1414220473037624,-0.06637245322437427,0.08388839962404847,-0.1857835023460964,0.1666363517691784,0.25004452196676447],[-0.21130570494789544,0.27730880173941413,0.21129479299223894,-0.09302583025874514,0.04560399384799494,-0.36483451212509876,-0.08969428701360502,-0.08878982602919984,0.3735540408564625,0.09772049506933667,0.4200460868988108,0.057837844920257994,-0.3618936280083973,-0.17603020366562072,0.09792218095635193,0.02046523810097559,0.6294833428043649,-0.13386869846035998,-0.08351380261655651,-0.29263395060351155,0.3458572070249379,0.13477268201328935,-0.15601162333697086,-0.5502605121352747,-0.02461539054613039,0.32479149181574873,0.29354887592700935,0.2843797390426983,0.15678740840880248,0.03255321005906416,-0.040696308113312187,-0.22335106045053246],[-0.27013681027952047,0.02493729108956223,-0.5204447700564047,0.0994939421527357,0.09802063095880717,0.4926190928850899,-0.029525532649113725,0.29001743546590436,-0.08280114785286764,-0.5065690785820409,-0.2506128752534684,-0.8353778781677604,0.03405233561456688,0.015077725176269985,-0.08752869143755174,-0.06893382408796216,-0.14544510691437157,0.011865890222506798,0.12591860982954187,0.35101132969737275,0.04231482876878431,-0.09293865382746534,-0.501470216847342,0.434786075063146,-0.2710589060418186,0.2531954852330784,0.04863329885474492,0.04200752132468029,-0.003576552346221281,-0.17732071235380775,0.303287489326312,-0.11036795252003204],[-0.1019911856708559,0.02024540080524446,-0.10440310599345948,0.15272508624181247,0.02970760207889529,0.5447404377718094,-0.04973876027014808,0.2482308194700213,0.09051307548019442,-0.046164920040684385,-0.5195855769707329,-0.19373349591627365,0.3443979260866809,-0.12842825657216003,-0.02836553861406293,-2.031782685228666,0.5626896989113962,-1.617103809927757,0.13091561041956987,0.045586046726468446,0.480842350322355,0.008176676192209801,-0.1968680458643685,0.2595527827500553,0.2509617952995278,0.13863970148906168,0.10245555530763506,-0.05625026453287239,0.7216940360306203,0.17640499239653487,-0.48328249914087196,-0.07730414727565417],[-0.10659396890977203,-1.9530049173552182,-0.003131217769179784,-0.15636452293135825,-0.26506770911795435,0.14641232277598132,-0.19797076587586063,0.40545006725297045,0.20200874593125787,0.06416335759500987,-0.09993868534186974,0.15329347584858657,0.19481466234128206,-0.20121616122835137,-0.04228419087764431,-0.1656571982994522,-1.166369084951245,-0.6831837170318507,-0.018955386978560692,0.22923770005075259,-0.6631850575694667,0.020368349228696996,-0.09521172110407387,0.4638105061916667,-0.20970858354706734,0.007580602037106136,0.1623280605281158,0.11360816892586632,-0.27302665733401765,-0.932238147377386,-0.08530664979827132,-0.31756357530158513],[-0.22759844282121253,0.3153803245804087,0.02422974102521982,-0.1578416705054301,-0.22477853457189118,0.22275334520158904,0.0546294662449722,-0.21251498066564647,0.7172408224099641,-0.572754775068619,-0.11217192456879771,-0.33150573322677457,0.08492031613198583,-0.01584768284384519,-0.4053078447076476,0.01720471169776329,0.011523239482539397,0.0008252541543097363,0.2242817691946133,-0.01643733038171281,-0.21443630243410297,-0.2741002199210875,-0.35175808423517546,-0.14141327694370412,0.26884874699371947,-0.20406584792815632,-0.7097139963657465,-0.6771447718302585,-0.19150280895436156,0.00239757631900414,-0.01628630150355508,0.18417772544911115],[-0.07625248423432306,-0.2129882039054078,0.4214061063994574,-0.060392608944798726,-0.46951566949204226,0.10317814815289884,-0.028837340141381323,-0.1311488446663759,-0.3096734240768753,-0.06011314747234605,0.2593359145757239,0.019278115390744213,-0.11437090670797467,0.009521484495849108,0.04569548343910596,0.11496483264448525,0.30579098730426935,0.06500723347037139,0.07844718336834053,0.20327525805818128,-1.1426394606738544,-0.11134101170306968,-0.017330956920701503,-0.08954190881212404,0.22266492928922846,-0.1907015051522097,-0.2656724147265047,-0.49596294066527036,-0.14122796893739378,-0.03884639887402205,-0.3106785909141276,0.250300419407441],[0.009310148356904299,-0.021254951781840614,0.1985537567624711,-0.16037128430691228,-0.5571977097123518,0.09383239399239608,0.11697081780605487,0.2967726738768746,0.18870058753303806,-0.7353202452150428,0.052855398083250626,0.41139631026284074,0.13854701784270437,0.05028421042056293,0.06319583650367223,-0.13517560752803673,-0.37563227261014653,-0.07880734787162613,-0.14992680969402042,0.4195721834060712,-1.0938811744813477,0.27078793309317656,0.2544382899510895,-0.26431120120871043,-0.03774771533796124,-0.12625371156065016,0.03229686323103186,0.23975774170451492,-0.30549722710606153,-0.36110216330137357,-0.22229586270242183,-0.376754846206494],[-0.004324048361128225,0.45120672713493315,0.022822878018160152,-0.3215270340840751,0.11768848071774565,-0.14820149891399692,0.0026904004464434884,0.21642306574156772,0.0068057242739287364,-0.11774116102587984,-0.19315196968649986,-0.28292740315152015,-0.001443443308716446,-0.1515654992517651,-0.30954214543003533,-0.25684337251791095,0.3020937114948481,-0.11320221974473245,0.08802642131386045,-0.4177691341124088,-0.2694461317263538,-0.23925010126752608,-0.9409672539266428,-0.3296531066766838,-0.19787565623762038,0.3939813053597476,0.09759417714023103,0.4821071776588534,-0.02092962597833893,0.09672560189673322,0.40089858717919397,0.06366128942434908],[-0.17219279212741753,-0.7406150106209703,-0.0787102950239386,0.14215286135222413,-0.22856592771491827,0.07727523674663575,0.23777190942235055,-0.8735298664627944,-0.3845422651909233,-0.09150500463586751,0.0871664382983974,0.12343348559660317,0.045590038369368306,-0.20782059429111918,-0.04271873463949686,-0.24101120872127896,-0.9011836366474886,0.012700088535480603,0.1478663783209925,0.16088627293053484,-0.23484066176557442,-0.6480982876921827,-0.11022592508472845,-0.19794902493852226,0.2328351093585444,0.12523393117089263,-0.11063105971326691,0.266779248202102,-0.10916876530229591,-0.6126648821666784,-0.09039278606962735,0.28955477900657195],[0.1538565266514441,-0.2301438713516403,0.0009228229412801599,-0.29511061415449863,0.16491467034715532,0.013704226319580225,0.10309963481885046,0.15967012414945517,-0.19185816411094242,-0.5174634715563247,-0.4192960181385724,0.11018152454656877,0.2820111966161865,-0.1487809694230443,-0.22749312526610357,-0.08478054785799595,0.012317150916228523,0.3886001329973821,0.041419258822057915,0.05697901026751828,-1.2550971987286421,-0.4668653471054259,-0.40362165350949647,-1.641365065264837,-1.0557040210659872,0.31420505468741067,0.48127070492654345,0.18987293277036246,-2.3184934662393024,0.415672163200593,-0.2803133733319476,-0.2336234458675613]],"b2":[-0.06708697192251019,0.2858120561523331,-0.008523405049726002,0.4061052019430605,0.35352058918200385,-0.03755429920647828,-0.09027858473935499,0.03290865142258183,-0.06529666957133894,0.3840719295115781,0.2762700019241093,0.2813990847956484,0.0054578825718839315,-0.014781846738583746,-0.10335693078962473,0.37886540686899756,0.3931719805844531,0.4558492961661195,0.009250131817850591,-0.05248247557931681,0.5228286475153585,0.36798252726938435,0.34106665659793933,-0.18662340701941701,-0.1521332608791711,-0.06145327059424083,0.16419770972956357,-0.18145255287617074,0.8322009759390934,0.35417422314653535,0.3656891586669883,-0.4938970890821558],"W3":[[-0.14341060736372738,-0.1431647017505958],[-0.16732441980452006,1.4075096130295341],[-0.3050101804081462,0.3010174629339782],[-0.3828063831608538,0.044069464812943715],[0.7607127344062893,0.35841666965527763],[-0.03971265110052798,-0.2715959427976216],[-0.04113746086413583,-0.020767545217035117],[0.4420326471004332,-0.29615950010070646],[0.3557964037628232,-0.5226419642285727],[-0.1295877927200306,-0.7167102509367042],[0.5684277199433381,0.686421384130767],[0.12751664031202126,0.8833263709619087],[-0.13015158665664098,0.015328015403103485],[0.015167214979203038,-0.001325851783969664],[-0.006543743495246439,-0.13565344883772595],[-0.3612702942548159,-0.06304479280353215],[-0.40355155040976504,1.2894874740242979],[-0.5287718406918188,0.5612082943924828],[0.13983099782116928,-0.05978828548152585],[0.018370464708232746,-0.7761498957015927],[-0.021148277266803447,-1.8851403431046057],[0.27989454967487776,-0.345937802743843],[0.282751408306273,1.1265438803560894],[-0.19619569017089802,-0.46596675782469854],[0.07311472954735768,-0.3047937736359733],[0.11096651809657397,-0.38567027461941716],[0.0420086727989071,0.5477691166851396],[0.5157202519755969,0.32273683903678957],[-2.1473252024785907,-0.9688553468116083],[-0.08581487022253734,1.0078442746730323],[-0.27971366900233735,0.2860796823126406],[0.006372457407387687,0.3439713959493152]],"b3":[-0.03146028855406753,-0.14474313549994436],"xm":[11.36535400962568,1.7257671923216604,-0.253092650014701,-0.003732166041503796],"xsd":[12.732584869392875,8.002450121418061,0.33296279568116205,0.14046705276276983],"ym":[-0.00007718204352293166,-0.0006062521380015998],"ysd":[0.021834398206895436,0.013920577566343292]}