{"arch":[10,32,32,2],"act":"relu","K":3,"W1":[[-0.02724851959716559,0.4836922225531478,0.09037012832355554,-0.10009286791069243,0.06165034877740608,0.021796482952755596,0.12978385457747468,0.8256386345753828,0.1958565589253973,0.5731919564285597,0.441276931415406,-0.48134158350657247,-0.901262832197447,-0.5194632156241773,-0.7653473505973171,0.6023557459716099,0.14599390748412938,0.0196395411926385,-0.11210085365329371,-0.34665674719945033,-0.4700774498117413,0.17406428244885838,0.31453499529277773,-0.4194416825489456,-0.018782052351767647,-0.11625372413661299,-0.5960920075900966,0.09714915444315952,0.5622475150308129,-0.1270652481273418,-0.4854323825918291,0.04658535136241266],[-0.07553058276455106,0.22695196688548205,0.10835173285064403,-0.6344935343094599,0.007167972252394087,-0.07541439565758817,-0.39460535685436754,-0.26997816618111137,0.2449318770765663,-0.940993137724054,0.18104739806008663,0.20092044000802603,-0.27802907183910336,0.4483349923467737,0.07791331394015591,0.2741407854631031,0.20745725007086,0.7007573381196969,0.37180010111445655,0.46030414133061576,0.048335705056672014,0.4363906179759606,-0.43780612075460656,-0.1440247029590866,-0.15464694846418936,-0.5377755415339673,-0.09949477804035353,0.3481473305570662,0.6085979385120585,-0.3205167302479738,-0.35900451704130937,-0.7924427124292539],[0.29383686645497586,-0.141288057575582,0.4169167891425803,0.2943968088778526,0.36311504220474267,-0.12228119909325691,-0.3088805138843908,-0.056248780052056524,-0.05514277093196,0.07575775223313899,-0.6575376730074779,0.5503051219372755,0.3607764327694278,0.18950660519441304,0.07362527676429743,-0.22541241057070435,-0.09736300603005586,0.2701617940335846,-0.10756849202836594,0.27219406461660856,0.31534864555681424,-0.1023821495349979,-0.32886979502921954,0.04733696772688342,-0.31291497415561037,0.5183108900801543,0.5642263754383537,-0.4057546980118829,-0.34654163361681556,-0.04544562481788958,0.46130619270356527,-0.09029088925017603],[0.16574178390098238,-0.27299151241360203,-0.26186146837529745,0.4207618252853179,0.46911302817590383,-0.3465875759680509,0.2917681540785166,-0.30975087686311725,-0.11284397506106676,0.26739892361335127,0.12557862044914356,-0.018822046739689773,0.11782649982819073,-0.33591474019450285,0.15248272753380188,0.23450543842388707,-0.5049595131032935,-0.42380099526271,0.08604241318793991,-0.42074536839005866,-0.20788750991871743,-0.5597468868663523,0.2997044372001164,0.4158987615209524,0.23755621901592344,0.36207296067355244,-0.2672600591679628,-0.3306623420144927,-0.526526151474485,0.308380665559124,0.2988009723709185,0.6048893778020739],[-0.03409227597507471,-0.0493018164124484,0.09430684826946495,-0.03157966518642854,0.07909515833841518,0.044860520667374115,-0.031210770966019093,0.007148126571642374,0.2807556458072245,0.04380329233667799,-0.0004498135780638314,-0.014775929142318352,-0.023230981390196345,0.05430527738042574,0.07673261725015593,0.011400594894650446,0.006289710506678792,0.058594741484786966,-0.0964937925070984,-0.13882647061318332,0.0053149873379207575,0.15069830788353247,0.013060382765302681,0.08820846680625775,-0.009397921827562262,0.09614164893530079,0.029284686970295896,-0.02992789535566893,0.06646494209467964,-0.07744991121160234,0.02026017964314683,-0.06222201416013829],[0.058426094966817436,-0.050657642764812674,-0.03495636306209015,0.05857329702718836,-0.0383944452450141,-0.13501866217831157,0.07465865520101146,-0.0009008766397533452,-0.1839047808270922,-0.009700936703179721,0.04834122393870166,0.019650384189685722,-0.029446681134508903,0.005517532013515057,0.15323836520705944,-0.22332604829677416,-0.028015805573311424,-0.00736997016187014,-0.018474927583305528,-0.2798375521691954,-0.02407288914589783,-0.01309949296360079,-0.023193986471531727,0.19009261441603312,0.07005267720815078,-0.058910207893055844,-0.03323832598294775,0.033973367525358907,0.1180169691717415,-0.09767025074069799,-0.03310898627721489,-0.004574574334271555],[0.35796993531063515,0.019676898729701978,-0.30582405227000775,0.008539411123024506,-0.09598143615121041,-0.14008477098708422,-0.02634751513036162,-0.06657929818538152,-0.22771479539851486,-0.06034421276638081,0.0010859086034019413,0.09886688723417039,0.015837217809561068,-0.1579725692679523,-0.12880602433193938,0.1972016061159074,-0.01750267330650965,-0.057644697041716986,-0.007929704883592984,0.18985103930765007,0.010023292159599797,-0.06630415223494719,-0.016856877438381764,-0.2007752594504018,-0.19302979018215377,-0.1193837878323438,-0.0615619118899211,0.037505121515814206,-0.016465001392598953,-0.17624350716888804,0.017327877172028987,0.0547141737068057],[-0.03814535212105774,0.07483203290810272,0.13015570733621676,0.020513953216705398,0.02887080010377515,0.08523445623991589,0.026863130551197,0.03332260055195168,0.3343953315207843,0.006070558584095364,0.028846010814772706,-0.018641167798122412,-0.01822803035466315,0.05318724844097639,-0.0533112176264621,-0.07473959863351039,-0.09638483029944622,0.07226330131986064,0.07936877290271009,-0.09639687731895848,-0.034473710586499125,0.02316872870460517,-0.029325592496029635,-0.1125448580671528,0.032958957958071335,0.15866772846642416,-0.031699344059959764,-0.0364317567577972,-0.012679987920017625,0.16793650633948823,0.07769183173170224,-0.02243170778554706],[-0.15629698372989323,0.00793830918608555,0.14690589013563687,0.025815707041380684,0.057256474038538126,-0.01582235769531462,0.024703507319254386,-0.007234035472055635,0.2551280342050417,0.027183857724817802,-0.008368581904327412,-0.047594111328644585,-0.023948119191439843,0.046352575167240034,0.07965946781961541,-0.26553093662271204,0.07766266125942081,0.0075891377526448155,-0.046753813581849636,-0.1882762577377031,0.04440280314860868,0.06337555115780441,0.0288193366964866,0.08131569344602534,0.03047722928569133,0.013947490194736342,0.03110680456991316,-0.00889659653380774,0.13553508603669123,-0.05870068291722141,-0.06776167188811175,-0.023442929260955526],[-0.0999525093374764,-0.03863436115298361,-0.19606157693525167,0.052633398157642626,0.07410566747750238,-0.13799158733897357,0.11246728955577545,-0.06990221709840753,0.14400575372833915,-0.020695036728911424,0.06358498431258658,0.03177465510057034,-0.03307444963323712,0.02215712385614356,0.15315997054916175,-0.04306581130515694,0.1148926215898396,-0.03447902179239464,-0.09616756616683554,-0.26041692296039376,0.008750686073407472,0.20078977553049604,-0.01648063078932926,0.16394800339294227,0.10146452874658181,-0.037229675843142115,0.01524941412579985,-0.04141916698117661,0.19036613569616093,-0.3973007814947812,-0.0900522476964817,-0.009722066174389043]],"b1":[1.129993979934855,0.4887443920188394,0.03260824090496587,0.4095814410137545,0.3249750705992366,0.9599960413665313,0.6278821576019747,0.0902067960203229,0.20044745996321017,-0.08478431412995098,0.4493039269864285,0.5374680491304975,-0.09626764820885345,-0.07056633803786348,-0.12173991130142808,0.13487426299717756,1.444821803005803,0.12854939835030577,-0.031199283548436492,-0.16343920962177597,0.7534294174176326,0.5187802532027287,0.8610417497984177,-0.1229904540294703,1.3252312428932567,0.361526352823011,0.303741059390326,0.5120783831898744,0.05435330812723418,0.23557282481567718,0.5763978122949233,-0.13498572462409578],"W2":[[-0.16828948430397003,0.3262157186863055,-0.3610131428304677,-0.002767251918326433,0.43110114899226937,0.2568230665129385,0.05340431165328503,-0.06248830140267868,0.3338854160324386,0.04681257784648062,0.1314624925958246,0.17275068748021183,0.04502580242322374,0.2884544289939389,-0.09354619045651673,0.13849806797523212,-0.3779830225892686,-0.5179557716943638,0.24503467994241968,-0.02149074721785434,0.31710326693749286,0.051594201342413035,0.2665931028367426,-0.012894742701660269,0.27706178229260453,0.0426294562633869,0.0803700067931286,0.3079954258961203,0.11719773337192027,0.3955807035511025,-0.26632252390149885,0.22778899443746062],[0.09132104737232356,-0.08817775936350632,-0.47640537524847626,0.03701897273751039,-0.04045120860692362,0.3259321737066471,-0.0377893298716711,-0.1886419744239125,-0.1157022839673036,-0.11824736383154831,-0.05110548088063864,0.0396882874261179,0.14895272882045024,0.15993074553337283,-0.06848166424421384,0.12343549078453443,-0.149367605192087,-0.10732549062726432,0.024496620839589422,-0.6400258190444853,-0.23342766537374338,-0.09745776104575252,0.23839404808306294,-0.0373719238693129,-0.1920071859188561,0.05503490138554337,-0.5347453498129864,0.1676070956074329,0.1100624854389647,0.3561725302607944,-0.25400647799516096,0.1974415730497306],[-0.24135610394657242,-0.179802374817738,0.01184324599777158,-0.14950951692476896,0.09989554402131061,-0.07149824114775888,0.08345207560253833,0.08334608526064641,0.05684513490272647,0.03459594115200828,0.2719259672774142,-0.051282489943789596,-0.07242569714862812,0.030073891556480346,-0.30624128531820016,-0.12591408672951887,-0.06226032526933719,-0.045739772589361634,0.17907325800969695,0.22835080785999257,0.07852330748989411,-0.19362270540591583,0.08263478230102937,-0.9962199980720197,0.18345568799510997,0.31797576378199505,-0.051720974884897054,-0.11265924071211204,0.1622965283728463,-0.05811799472260067,0.16618364241345565,0.20016704054742449],[0.3200259989594576,0.10557214225685489,0.33233956699972117,-0.8885535717215249,-0.15389118193602286,-0.17876317077490309,-0.09046833843094253,0.2635004040914178,0.0385828487283,-0.10652710088094883,-0.11167948036666416,-0.15888614976159843,-0.09763723401361657,0.1621157022124305,0.2207631256463905,-0.11350612535680797,-0.26890718969829014,0.6460572494144085,0.3732504298826056,0.15306185438455755,-0.017627678362034015,0.033162862195156344,-0.3020423745910174,-0.31256556778802974,-0.08698999619829348,0.3440538636463163,0.22520618384134938,0.41127000224563526,-0.21888671507723303,-0.012253709407826956,0.1777618827453718,-0.04208569837771501],[0.19906730343165607,0.34816831679982835,0.22431554554488312,0.2215323023445135,0.06544163648919372,-0.1588507250281613,0.3799963560518525,0.15016908964752182,0.11774239395590592,-0.09247404710305285,0.0025031114065843796,0.3186895952915835,0.2668736945976444,0.18339558499196018,-0.05315701012227326,0.19079489904404148,-0.07728229154159698,-0.8196192433861195,0.12473304047754756,-0.06315889550973253,0.2327261586339038,-0.38554802381395226,0.18136967711777147,0.1800524865907374,-0.18465467711744765,-0.20021011383863194,0.042642152593718,-0.13965923823368245,0.04246327599911728,-0.27727523381814584,0.04586202390792341,0.155385700592603],[0.23451237607542044,0.16694640191611523,0.35671527411271486,-0.3425770566609203,0.2919952214930513,-0.012111377108757438,0.21371079166633208,-0.14078104920180803,0.2944365054604176,-0.3885789858483986,0.12938684060070774,0.010367204897281254,0.15713326959900056,-0.29168089859193486,-0.1470606447824497,0.199581394784262,0.08773402813206381,0.3663821730269095,-0.09845420619058814,-0.08428988068561723,0.20567485097756374,0.2608574951735073,-0.1436445143750008,0.09357711512952305,0.3381007438313338,0.21905522742254166,-0.5440506074747188,0.035632125956739695,0.2864751544091519,0.1447667482789413,0.20161800217982556,-0.11703692548521534],[0.15737183567136728,0.22651026071043942,0.17844585348918476,0.5143550866849156,-0.08025852366588251,-0.20743270655168597,-0.13136455813201448,-0.1384358590077657,0.3282205049178429,-0.6326030211820726,0.32141887728496576,0.08921578096911269,0.06782334234847356,-0.21396411633200896,-0.22631279442644148,-0.0745324451340791,0.3302768050594653,-0.6424154057723285,-0.17360454270110254,0.12762720040624406,0.23834162989975077,-0.017004514802354542,-0.04489638140717703,0.20890924315175863,-0.06430568458740393,0.28895038084275915,0.5388642650198665,-0.38173245893867086,0.3104184491703973,-0.19796009510260676,0.24071512241550524,-0.14770208299712737],[0.025540716136795826,-0.2118360573502519,0.16541449725028703,0.34256564525403643,0.1978782742812238,0.0535084375278512,0.0015908623088461817,0.0951551374793456,-0.21032433486415156,-0.19196915651740173,-0.2434689217580867,-0.10320264705541077,0.12347832773634038,0.024677881290795532,-0.3162827532877701,-0.0682878728993921,0.049682021666403293,-0.29925780685436376,-0.2918779622457272,-0.13626135646303233,-0.33710467548550443,-0.17233371006225393,0.33656732987253596,0.31559629912000886,0.30677502432156173,0.24735419428613442,0.19173095846676294,0.28199090845954317,-0.045644353977869076,0.03988624002539957,0.3092827673284017,0.011333824688101053],[0.07141118425205435,0.13981644103400329,0.22754873146727414,0.029709994675772986,0.05308079085021977,-0.29684369925303483,-0.02216918766694261,0.4453628810103165,0.1912833490368603,0.11898562740630392,0.04259705713467365,-0.05913966381461615,-0.21587115590638045,0.2262502317933673,0.4427973201397486,0.06004569400899164,0.17602056194310556,-0.33795122979437087,-0.023022108173832215,0.318253836186132,-0.11154492269852996,-0.1668603249882838,0.026877961692000442,-0.26938853131268525,0.015541578420533287,0.09210928518399103,0.5208945399926561,0.028003315356147803,-0.07870904462259155,-0.022619341612089897,-0.46268857322302853,0.042678559469835516],[0.27351826326978146,-0.44739710542720035,-0.2509123831303757,-0.7839281599046946,-0.5849631772882117,-0.46934465687917426,0.13179648164377827,0.22972872845925288,-0.12045246977192015,-1.4778661152244719,-0.22532928013295148,-0.1348607342085799,-0.47483188322575604,-0.20821881459059757,0.4401730944817156,-0.09988471027735138,-0.061719045202123846,-0.35990584840750944,0.30499473708620417,0.23146846447357028,-0.09583221334718872,-0.13618415655009852,0.06904258647280985,-1.805061604600982,-0.6491281464918331,0.3446940428239602,-0.31561062645938426,0.19804561952322192,-0.41021592259764994,0.019665039508068128,-0.35499608725814336,-0.37636135698680023],[-0.13708405063582685,-0.12034507011804045,0.05450381036642697,-0.8528157925527973,-0.02550454503076921,0.21004710656525769,0.03523752158754167,-0.038900421872607394,-0.1192289271066166,0.28398223954777035,0.035936867439760066,0.12337177122599438,0.30605391709521174,-0.05177168198092011,0.05884688115119064,0.14352819984712725,-0.004981860210734265,-0.3010121543155161,0.062807158986097,0.34673895899247825,0.015734591402572846,-0.044080505048980784,-0.3768343507643329,0.12298900806356497,-0.07919459842256206,0.19705118578943948,0.13064378131334656,0.03881096694236596,0.44885935340406813,0.03654072448621091,0.1724921737443179,0.07311479378959189],[0.5678193367906275,-0.07444870551194759,-0.17046227627026792,0.5031872921751801,-0.11140354635671336,-0.1412180844850184,0.16835937497206138,0.05248685548938123,-0.15330266132708195,0.031220673119564196,0.18568877764769942,0.161425598528605,-0.04384126431455602,-0.16709605040651124,0.11560181310182467,0.13212609731919214,-0.6447426525460637,-1.107189865048657,0.16308457455105965,-0.29145899944030185,0.22624795898970712,-0.11134470410101044,-0.03553847162060055,0.2975687671341367,0.11359723820203864,0.03742374432384066,-0.11151892108715833,-0.6738195208037169,0.1155856856710466,-0.3451540285375858,-0.08055745587473698,-0.2499126140015466],[0.29347424042960946,0.00343713377597758,0.34892868857441056,-0.17148798804894771,-0.6437583107096447,-0.16276110605764144,0.5280444423311409,-0.020021124478109404,-0.24971228804012982,0.17295951315101404,-0.515476569024111,0.12681592258560367,-0.029134136609927884,0.03538973092316394,0.19351109498059044,-0.4493459571017005,0.12983927608398513,0.0662613022566672,0.2687238854476808,0.582792323581952,0.046915317732741796,0.09121289384138805,0.7430163692472022,0.04076846186435053,-0.2112636836304508,0.15700981844751433,-0.16305257218652627,0.44340016482159356,-0.7959171400231625,-0.30505687653431357,0.2946275216997214,-0.2606153714271814],[-1.2361573300343536,0.04717913885163249,-0.061932151828933406,-0.2704439426992328,0.021691999419863103,-0.05265550534123678,-0.07953390719159346,0.0010030788204047844,-0.6106313865852958,0.19121471668086512,0.05936834202697272,-0.19391978479862665,-0.3047525805826476,-0.3507479384976197,0.05297441073069094,-0.11203335243620044,-0.01596144431738663,0.4287065881863954,-0.5085294966406267,0.06080059244081912,-0.3787380135033034,0.14741514492496305,-0.13682382987234798,0.31637572612930637,-0.17613121129307982,-0.1769549827439341,-0.11314628989514193,0.010297802707978967,-0.15628536998301873,-0.038631151570691906,-0.44384044572460135,-0.13565213628355577],[-0.03498554401755925,0.1581560500614563,0.34996663209209244,0.047658138311380355,0.04691776496652812,-0.08474687970793009,-0.2064633623127956,0.362949653242031,-0.21468987114377974,0.02763196365055684,-0.3805273847791519,-0.31267349479772283,-0.2039872438878642,0.09194205031744158,0.11533034873576874,-0.020015441900807503,0.34339737349676563,0.4928680892619989,-0.010597460927237371,0.28501159385837477,0.1731827216467027,-0.08961037016402269,-0.6131050339092086,0.2598184936440083,-0.2699919470937413,0.18298427576575957,0.019060876034319506,0.2211548312428407,0.04490312268548731,0.02263018243169961,0.2832021965298035,0.03786136631880999],[0.09519836269360947,-0.05616099862091788,-0.45046642626019895,-0.08938300864457187,-0.09696829386443968,-0.3129755138597886,0.2235387678104936,0.09184332616827566,-0.055114427914838796,-0.07672086719947098,0.10579311700096242,-0.10092277382912407,0.30155284272390215,-0.05341795877126723,0.24179214287850692,0.20496368363640158,-0.6438401597802467,-1.058870241566037,-0.3473091006589076,0.06272478978751511,-0.12284624247381512,-0.3013366927225327,0.08812128083515776,-0.1302738737873391,-0.5255416545521503,0.10432830777968716,0.16108911967957273,0.021758708971960455,-0.5182090096452983,-0.15842673961615913,-0.2868710993276931,-0.07491095780651472],[-0.0700888062414698,0.25735031837257133,0.3769684416858925,0.08084726392703406,0.13641262683058208,0.3876834122224586,0.2894958239669698,0.17066568270593419,0.3457866490130637,0.3615040798722825,0.29321205443015413,0.4906977421032592,0.09537541720582289,0.17687533584780527,0.11684202834216259,0.27061677239243775,-0.22100519226895535,0.07524041628842833,0.16286844162295178,-0.4047697454237713,-0.10975072466727595,0.1341685300097974,-0.06140937321593618,0.030759147249524586,0.35479132295808113,0.09625527506223007,-0.022133456681507756,0.1654618411266435,0.3521717720461479,0.31803779776317875,0.15367568688283934,0.43384918452319987],[0.18685901386808965,-0.4085557618222702,-0.4813285880560479,0.4995541417251555,0.09250716901476382,-0.059911333237960156,0.028750379777358434,-0.12488964235144737,-0.1208766085437077,0.26688295950043434,0.10758643977122465,-0.6550771342035265,-0.3530801496456969,0.09556565606298659,-0.006076904111003184,-0.1243435871762463,-0.3906705924630817,-0.07133129022834005,-0.026010546224533245,0.21837260259296187,0.1559733215963743,-0.06697496537066239,0.29404839711720837,0.2595294861662556,-0.06477914121696858,-0.08689553714022294,-0.40598446378580283,-0.25210586143819985,-0.3311831017518797,-0.004395809295682249,0.19364094201083193,-0.10537391734375523],[0.13570580362752568,-0.18499819852831326,0.36257182374973446,0.1062327364746856,-0.05615540319242645,0.19787541883904058,-0.1770163681760115,-0.14262126184299403,0.13259356664492963,0.22942320104536137,-0.15074270844039214,-0.13846447063010864,0.02846001811192116,-0.14063489115896355,0.19714517645376373,-0.177947827143436,0.20262615138776335,-0.12292561653636075,-0.19976449691963308,-0.2699477024730993,-0.041106830264874376,-0.3416718540230958,-0.1454679415035865,-0.2800370267355022,0.10778148506502826,0.5620202812081067,-0.08036415258950431,0.24687583902447668,-0.10733804253182422,0.03930630974966788,-0.2987461666274934,-0.2755637885306815],[-0.8029935592055956,0.12350050734767122,-0.0172341918144157,-0.4421895699823849,-0.005557915842639961,0.1210921495378517,-0.05939283659584504,-0.12018941884270254,-0.17073535913351762,0.15880840777277544,0.12843544203915583,-0.09899217000228269,-0.08606469690975442,0.1504280638616544,-0.0015623965062535002,0.04423243543424581,0.25742119814162395,0.7324550870149381,-0.39569196733470885,-0.0657358955278967,0.050016590953211974,-0.0050105925802108355,-0.17393205629481176,-0.4671421041435436,-0.14065277323775094,-0.1614173819464525,0.4227734781308584,0.2577561388417372,0.033478208167806646,-0.3845178543198923,0.27927788929265174,-0.105061273544892],[-0.4286783160505759,0.370106843364851,-0.6669234685201707,0.2194061404119935,0.34958162604873894,0.25581129376076833,-0.7926302745842311,0.011474864083163802,-0.5305498311468393,-0.18340493718034928,-0.5142335098644768,0.08120229137956357,0.5357842600826125,0.23995173324232505,-0.047876835247963635,-0.38252903416955913,0.2508266690076125,0.15999341328843167,0.17119838103461907,-0.05700776633921301,0.2228116605399768,0.15433286994100315,-0.3206896032922898,-0.08470450115052788,0.09068814402607621,0.28385477978753065,-0.10843394209562475,-0.711629390087084,-0.44556643060323764,-0.481526611029635,-0.3210733627421694,0.2549055971131886],[-0.6726888301273742,-0.03464867656439244,-0.13270941720901216,0.11003295108782954,-0.09353556329908519,0.2597621382583293,0.1457347289885223,-0.1468712692096987,0.3917768442547987,-0.06584846825354426,0.12408364173773674,-0.05522819340340755,0.1243712703214545,-0.4721571050723371,-0.25156778796138307,0.10246943165876274,0.00503557780287175,0.059907541025359556,-0.2347564926067791,-0.47707272471904716,0.02904915406887273,0.3070349342524037,0.016970061465385794,0.15258130493401328,0.46333128464503054,0.18560128142499374,-0.12711842481862545,-0.17509498260609033,0.044838189543707586,0.21370489864718273,-0.12546270179680372,0.15107883138400768],[-0.27607240575727116,0.3472685801890098,0.038168471021834065,-0.051233144396477345,-0.2116709334816165,-0.1143567024356781,-0.5660113001268056,-0.14921772071261732,0.305789113834882,-0.6857017312893511,0.33742011562799856,0.43486042330870994,-0.07767592850366134,-0.189484960009157,-0.7968152246420989,-0.007509512052718421,-0.18619517139615377,-0.20794420946271425,0.09824995126449587,0.27227401805426465,0.06382347798658299,-0.08158047839390932,-0.017688692339198495,-0.3878100716777529,-0.6014738012364782,-0.16963891035452433,0.030948523754528473,0.3582580580643242,0.12903095525575894,0.2613491529040363,0.1292175783552318,-0.2975319489595926],[-0.18742956961361223,0.2050760392224976,0.283162295434001,0.28710837029845543,0.0005837929334702059,-0.18240650239281653,0.08247005601480425,-0.18908421848262766,0.3604658301871618,-0.13128224594957877,0.15353699010896796,0.10924566175069893,-0.09467618266615434,-0.12496319783500404,0.2149227544265872,0.125596846960682,0.248297724701808,-0.5366511261784404,0.08567977775462467,-0.1385893540093112,-0.3611498989167943,-0.08323060144635845,0.2015451970920913,-0.6897137505093575,0.37896623504763355,0.054429491272888396,-0.15057759636774784,-0.020385230462867866,-0.16120463866008733,-0.3194441720042405,-0.2925305124921722,-0.2139109568022058],[0.1468853417826057,0.13403317184349953,-0.0009618076277127391,-0.2370169774880966,0.1598795932588361,0.21973942498899088,0.05982795623731807,0.09247941748118409,0.1824209973331483,0.24414027512262412,0.3484487542669167,0.28683430855397213,0.23883824594784991,0.42263891969472894,0.1816721036160008,0.1948915524874673,0.1917118441385046,-0.05569536066576347,0.3692247222969558,-0.280919859124094,0.315763336485114,0.2467588105271675,-0.02645208888169268,0.009196543499994525,0.4214287617257532,0.2004295879950705,0.12486143339241527,-0.021109868991893935,0.14079404489020075,0.3767361001645947,-0.26030601249685975,0.28569795462240555],[0.046566377137957464,0.1929471868807449,-0.20289310536604704,-0.4481416173887565,-0.11846870176925864,0.2233178614453844,-0.9450136850473289,-0.081145736587615,-0.09398944409343211,0.17866184447874914,0.03113437547950235,-0.016167347601195568,-0.07983773428835687,-0.02513269123686289,-0.3225167793206745,-0.11071118671848118,-0.062427769387393,0.3648543536244017,0.032557787289997114,0.28272231050766256,0.32390671317281566,-0.45733023113508003,0.12904761483229998,-0.022989771555504,0.03698551946692843,0.25505784969337464,-0.2162987707452548,0.28417578989897213,0.03199266561388919,-0.08083282025567168,-0.19332984600889563,-0.11413109675383308],[-0.2963206998495033,0.11417487411723395,0.24531633565239142,-0.5960787324510262,0.27350919835585724,-0.017548003523385907,-0.44987563896904026,0.44333817512302726,-0.11633347952327666,-0.04915805579563176,-0.047383090634651216,-0.016793086416653773,0.31521208297476294,0.35123684476033085,0.1977703572108435,-0.16594731385502784,0.396714948233783,-0.12488274620549483,-0.03902603400583094,0.2975559054292564,0.27795253868599146,-0.45939634003947083,-0.39797848085256665,-0.25447071335717525,-0.2238880316891741,-0.1654665608975099,0.4994208070974619,0.23592233089507253,0.045157694343665844,0.2744873561866347,-0.22543752109213097,0.1557329975217972],[-0.6915539312956335,-0.21780533186527465,-0.3016412200627907,-0.20084167639231265,-0.11408217873165724,-0.022615334172596608,0.27035068534114637,-0.4582605182662408,-0.03175757629833859,0.25864781035716905,0.28159671848000495,-0.20874427756070427,0.07627030916000987,-0.1757725351499343,0.14923065343354658,0.24727472613308993,-0.4854433533056371,-0.000498664855777335,-0.010987223646583857,-0.459268593242732,-0.12862342925913037,-0.2507247060875124,-0.3818796493128643,-0.23866534962559532,0.21819894216150643,0.35578862148903206,0.11815667533305797,-0.4136970033697099,0.4472385105941322,0.2649226058508708,0.36142776006706234,0.18305801843183592],[-0.5979065411658585,-0.5141948651841759,-0.011856664496557739,-0.3227759125285492,-0.27938734580150393,-0.2659649504318696,0.14275532024152493,-0.17327501865665243,-0.2878959716388622,-0.3757768077441409,-0.2233819890782198,-0.5645627930644027,0.2597751286450422,-0.3954656704215275,-0.18461804452020675,0.007124911594079871,-0.042139001706373594,0.044710615273193054,-0.3140925109558896,0.31723444957438657,-0.24756120406466295,0.10916631261983922,-0.2547704127125616,-0.14802048087836647,-0.20866983517010437,0.30303887153944975,-0.05813595395683712,0.23019527449579896,0.02777206613979163,-0.21747958669235418,-0.004171504618750203,-0.1294857111761898],[-0.2729386838713511,0.218175415537407,-0.048817630745123304,0.3777602577636884,-0.1403946238623387,0.01000916444754294,-0.003281526026866768,0.022710971144705532,0.109196428502061,0.019241076729880645,-0.1115494597743202,0.14857635540276573,0.13094424995299359,-0.0908355155161605,0.2127880865828486,0.07322941140551074,-0.23930345156333607,-0.7616413397414294,-0.1595769611370993,-0.021399638300560877,0.08039640844843207,0.32945418682011085,0.05388296654297915,-0.4305118975440574,0.05265555510701198,0.33832332348919864,0.24917383150788486,0.13598885518454626,0.1865697242529682,-0.021322948966263924,-0.014574996061132583,0.12751508272618053],[-0.3529676646974716,0.18036312662081644,0.22068670252541642,0.4073532142590752,0.04092830911927092,0.15623077683729805,-0.5260230434981241,-0.4090781982677336,0.21456801720213448,-0.2740382420911554,-0.008703236157495915,0.24509690153308622,-0.10395408363791518,0.1487900056967859,-0.32030909318475814,-0.02781441045710903,0.1844075304042601,-0.3168507117463318,0.20322108047027415,-0.03944437548887163,-0.07870448887481782,0.012653259256204889,-0.9738296291123227,0.03050244631325827,0.1365886331886588,-0.024549315900596426,-0.30074147534660917,-0.5967467571755976,-0.008116886913997956,-0.051966948030416106,0.1820460157969534,0.03465896817386526],[-0.24219289825591192,0.17596159389517602,-0.09523473340616727,-2.2657852935656515,-0.3718716662164301,-0.47411789218576844,0.6212548393313367,-0.5448625833002266,-0.0978900204678358,0.002938555465975787,-0.10792736199473435,0.003532543816700148,-0.2714447886047204,-0.3336872173553959,0.12703164276712647,-0.0679091330465587,0.3664393381255023,0.12453675886102213,-0.178842887013895,0.4075295234488713,-0.39791875595277443,0.3505607114065067,-0.19591970937839168,0.30625290306077424,-0.23437584726627947,-0.11162546835360047,0.15286436950606835,-0.4172184815825289,-0.06671699490120059,-0.16334980931437273,0.318871515837388,-0.6942645675965903]],"b2":[0.055667878010337464,0.3783988605218701,-0.5183898827330407,-0.12380888702531902,0.6331021178002263,0.4307549501173193,0.03345337356079165,0.23066555461611132,0.4279502601065689,0.5100950025454609,0.43204066530782465,0.4020861121197166,0.4174260698059878,0.4531050049157233,0.6850078559759398,0.5301220553351625,0.3585488398186491,0.05645593337867056,0.34683560474932734,-1.0848231391710494,0.2899220706381722,0.3616656988127216,1.0608759276081203,0.5342212040717954,0.4935069310471806,0.02861957336419387,-0.014081290708163564,0.3190208235701369,0.5112750728958587,0.34249976674252697,-0.13137290463635568,0.4911586920998783],"W3":[[-0.39401017553032636,0.029653539085238198],[-0.2119262115891637,-0.418579211861491],[0.5572548101787673,0.19583350191033852],[0.907578829588581,-0.6408757314781316],[-0.2512970870481126,0.43034378317336563],[-0.07644938785661326,0.3805456791164273],[0.24631637913248008,0.3364818856822669],[-0.12935475157884913,0.18925078241721174],[0.4650058612545529,-0.31150061094328757],[-0.029781714365052565,0.5801018680541202],[0.46963580019025114,-0.07577884851726137],[-0.0954326610234305,-0.4480548949676726],[-0.2656374944741858,0.16783575407489218],[-0.15354736559057675,0.2096379243408818],[-0.2927019455058032,0.6202454635796697],[0.22609848760072576,0.2846803835067851],[-0.4785759060050398,-0.320129776025823],[0.5243337140426825,-1.1106746006498678],[-0.17724042631292278,-0.4048433349853926],[0.44190222033570276,0.5716909795074947],[-0.32431748280700756,-0.17245857125549377],[-0.16725606990599037,-0.12333960692636148],[0.6753526658515717,0.4563640300310927],[-0.37818113136037707,0.19838606354081384],[-0.39939752661095507,0.46264205379748713],[-0.2800974244221933,-0.13902303514467923],[0.020377083394438413,-0.4258239639810808],[0.48126860858107434,-0.3064813930759668],[0.6583916733376639,0.28341796321543705],[0.41707417264056124,-0.2672668677389774],[0.19012535450705512,0.25004512670776374],[-0.045171105425963275,0.27578893454401054]],"b3":[-0.0837590790031784,0.09997899597350059],"xm":[0.6961985672098402,1.1966666387318639,0.016572709408508607,0.4964245192790221,-0.7194180326363175,-0.6894997723880508,1.4316370114008692,2.025402351672064,0.503310443746448,-0.1957228605055388],"xsd":[15.200645066700032,16.029520885637975,11.215391877299728,12.053201462711193,26.225567164069943,26.92860433072374,29.74588186247919,30.38126724370283,46.31473120685659,45.94201990273726],"ym":[1.1638567202752146,0.849407476598794],"ysd":[15.355409229772826,15.572232603444878]}