{"arch":[6,32,32,2],"act":"relu","W1":[[-1.3472495950735863,-0.04220439796546564,0.5879455486803054,1.5215973767182183,0.532676198302564,1.4457437418584136,-0.8513859072934981,1.4671732481816182,0.5446737126283684,2.0488702762916824,-0.8051545499775423,0.15143521704771368,4.801429656406817,-1.3722934650466516,0.23430841694317425,-0.5449066604404065,-0.13021800477430748,5.0085818001160725,0.1027315074312923,0.8495183721885667,-1.6979440523375124,0.05133401397542565,-0.6586728276642171,-0.029265589962419576,-2.593512752957164,-2.1179601809290225,1.069011088031952,0.5448583333112775,-1.0090672588622356,0.01903320381197808,1.0717079154838514,-1.745145393084326],[-1.5425415218664995,0.12798900090026802,-0.3322921799690962,0.2193001137721598,0.9170995916051825,0.395009370074787,0.30879071748014447,-0.1773030513503535,-1.2821178893023115,0.269475215857199,-0.393415437470419,-0.58423727739019,0.47480794953520944,1.039825926559602,0.1621398690809828,-1.248956412909971,-0.09343701704417483,-0.3779957263796122,0.37059433701724265,-0.6350866116969932,-0.3656517379858582,-1.3844618614571076,-0.6518696736332071,0.3874388885594889,-0.18913440029254927,0.7673419220776887,-1.3957741297167594,-1.6287921651695798,-0.5628420911690479,-0.14444303611799109,0.884894698264997,-0.5238578776909909],[-0.21450747633964806,-0.010904060655855747,0.2887944369788219,-0.6773505901064618,0.19797566644489906,-0.34312036210465474,0.22673292918029447,0.26333686927798217,0.19315308966749364,-0.03068329386344857,-0.6548211282292175,0.050146075984168544,0.2964912496200122,-0.06543593956538661,0.2909557111491063,-0.08700551944804263,-0.05227039110357386,0.20504370934772972,-0.3698635539368151,0.12465094851590978,0.8886810776974707,0.32492617298765963,-0.7061684025773615,0.05269583991910673,-0.1800871798559582,-0.2830167564296011,0.3702081020829587,0.026547220491953197,-0.2986995272326878,0.3953385397654634,0.22767835379755505,0.1278194396531616],[-0.5269707133410335,0.29176723164445456,-0.7133714718433819,0.5164061831167501,0.19195985288626152,-0.25807739307046,-0.4664005416250897,0.9708420288792611,-0.7759440109811707,0.05533232155735319,-0.5712574469303203,0.37780476005059765,-0.1824931477865608,0.7168676040483765,-0.5137154222215966,-0.044134107861509876,-0.10046231004688227,0.011278185327411122,-0.7449247810061449,0.19127760709027278,-0.6559891822458557,0.24554816778329516,-0.22001688845488124,1.611572962473405,0.017925363819745174,0.08509371394935535,-0.2556399740442616,-0.14110098475418545,-0.39250610845173756,0.7518648045591295,0.17810349712867485,-0.5673335050777905],[-0.04434278090997791,-1.2365749987971544,-0.6384156735183806,0.12823703240796797,0.16671991590756316,-0.315198230523417,0.39623302768263335,0.11566785969773447,0.06761101955211861,-0.033705233560426755,0.044851577512102746,0.13297413342097586,-0.006125763432485375,-0.011217561202477529,0.00031206325848761934,-0.09310930109564898,-1.8870984662819168,0.012446946622520568,0.40891913622615084,0.43246616734193466,0.037433134579605065,0.3536452170400723,0.10305814217900049,0.11926870177094141,0.08961328331127677,0.08606331729096907,-0.024770923151473955,0.04318687033499506,0.028031644224211116,-0.34807146444204695,0.14471185892138308,-0.1053237904951724],[-0.003678299957776546,0.28178751100710464,-0.530974497978084,-0.04405902092497883,0.00635471960519911,0.22551466011363405,0.06415269024417439,-0.14162672820961325,-0.10002705908968557,0.011037750465487913,0.021621071021160627,-0.08805755868967063,0.01714564776763887,0.10558306166785895,0.09799577837341114,0.21294069557884432,-0.0501708837084968,0.0007675900914957427,-0.0621156205515897,0.19380209459487444,0.06118555549504181,-0.13888552602495094,-0.04133452691002919,-0.0025506061127397034,-0.02155217193568934,0.0075140418105050615,0.009679665017198236,-0.03940806441088363,-0.03131637787235805,0.041452394970735225,-0.01957558641019575,-0.013901193446382156]],"b1":[-0.45247742571787086,-0.2937519064146571,-0.7707750619369462,-0.4592468139328417,0.44556690890628375,0.4468036209000261,0.22924705834998615,-0.8082027023111004,-0.032387508190051324,0.08703381798475882,0.01544226746757327,-0.9383680243874813,0.5049252064045011,0.1720119760372219,0.7488417081453962,-0.6992944592580402,-0.17307062129328324,-0.20880937154929147,0.3796714487815564,0.1328967690616405,0.6264572462587737,-1.0450715885990283,-0.44659819353567165,-1.185339898192391,-0.03831657897027011,0.6478922345669724,-0.626630974007846,-0.8351287036832054,0.10515716203522245,-0.2530113007016011,0.5916444758988223,0.012979060684021096],"W2":[[-1.3402209904423201,-0.28727571820513825,1.5220029897039264,-0.6842210235071806,0.058937261356484257,-0.951353915928595,-0.011139185525170825,0.8073639474881315,0.3621467074411428,-0.05348630878975816,0.7160412243819815,-0.03321361531653144,-1.048925279546533,-0.0935602187381872,0.6923638189426261,0.09062550171300472,-0.13382356128827622,-0.9237675683230755,1.1792401146060585,0.44669314778062486,0.6158592925797859,0.40526144800796127,-0.28859400508662014,0.5088168926575476,0.5935156904369051,-0.5178444804712271,-1.3548526977441069,-3.30112111069389,-0.8115477504782346,-0.17733254143489804,1.204043732505702,-1.075931016749697],[-0.11884664916120759,0.23333945158257005,-0.5607932438289167,-0.09039813682789412,-0.006677188800381211,-0.5251430107479335,0.32336533185092575,0.248126471833819,-0.3967819383706597,0.20029974613324292,0.1461068371668109,-0.20726287362969614,0.2724330650758802,0.07459280132999899,-1.1666530312763888,-1.3412670705074026,-2.4116742416388957,-0.6274691367627767,-0.531550565112857,0.24800558799998354,1.1092387438926044,-0.29306914850641463,-0.010692198792540117,0.6847658611059647,0.4479080693741059,-0.0038233951832030433,-2.737729072798073,0.0017046645938184968,0.29427624362384697,-2.3349238402068666,0.30898087683542197,-0.10774039132592045],[-0.021160982974378725,-0.1933410285629774,0.27102000435571955,0.3322973848992349,0.4256301763937605,0.14735363616137484,0.030739637393119704,-0.4366135481229941,-1.1553738501834208,-0.5375254719315741,-1.9423317266250717,-0.002693533782238855,0.07133037816444053,-0.1350825713590039,-0.22792371560547023,0.24800581653102144,-2.6901773131517204,-0.07774093370159524,-0.020040484691645342,-0.3719903640148217,-0.7168920026533003,0.026042695806492377,-0.2086227490288003,-0.6102352578862645,-0.7057173115074287,-0.30574127328016465,-1.513928560817402,-1.486253583616445,-0.4014506345746249,-1.7788384696759731,-0.896422626375743,-0.4858419928901706],[0.6911557059598538,-0.0745140280031055,0.08463342050722873,0.046778332365164856,0.48127838710697357,-0.11476055855498189,-0.568413108652813,-0.43701085459428207,0.4199611174561631,0.05507525212098477,0.13211553180199664,-0.013643503079024843,0.5111380631941407,0.08715605751478861,0.19589099311958078,0.27740846472664976,-1.466384007851753,-0.4581978115155544,0.22114894604843383,0.7690885481266576,-0.2383660615758793,-0.08429313577656153,0.27586416025098526,0.08940514056003326,0.3462575511283242,-2.9105515858407913,-3.7950795933972628,-2.0166639114179374,0.19489823604122786,-0.21212960812375634,0.09375694042419201,-0.24236919326944778],[-0.17103156703183084,0.09346823719657639,-0.43076751333144614,-0.6525843170867341,0.17338190577187404,0.3575531845066184,-0.45303213456958635,-0.688902457197799,0.3551335218534458,0.13629986409311187,-0.21563715874147535,-0.002016842249788736,-0.29272751492220783,-0.017880737673435704,-0.31406349272927264,-0.40400312655929654,-0.7164525016372115,0.011058719558033408,0.3426149730239409,0.08185916024125436,-0.5609859523172387,-0.07174845546341072,-0.01348807610801543,-0.030169004292766314,-0.2778428982691811,-0.35267053129899356,0.009542352494573943,-0.3341371983777617,-0.17602536793731868,-0.34823738112689845,-0.5876704749081287,-0.3851972570441426],[-0.6780777796039155,0.18821017189446249,-0.5566831103072255,0.055857268979655636,0.43418610876134395,0.052438562473878216,0.2407951359511151,-0.29668443114148624,0.2779093261765319,-0.2035283086429651,-0.2324717730953391,-0.21038854120317313,0.5734487990486264,-0.16733156261885002,0.027540154258211477,-0.08283443997355802,-2.023232828537662,-0.22313265727333995,0.12410092495826078,-0.4270665071701923,-0.21611927972448147,-0.2332645190467786,0.09060169302146893,0.13404856360795658,0.3655513159901655,-0.21463595100650665,-2.0990885005161197,-1.0802068211783167,-0.14029998705575827,-0.49092510428147407,-0.3566042882426403,-0.07279444184426831],[-0.24026708577712724,-0.06950636784775398,-0.13051081946527365,0.20894880301314203,-0.06207488205159841,-0.1485933614923897,0.09131115944490624,-0.37766547404080936,-0.03968293106124012,0.048393453627246674,-0.2309015893366999,-0.22757701574711922,-0.46012376908054725,-0.2091131210136754,-0.1707396248060672,0.18891359626473064,-0.11978047999699129,-0.3354519854530955,-0.1459690719164716,0.24836381827649917,0.24541833563105883,-0.32939864270459085,-0.07205316307861243,0.3655340849824767,0.1162484228519462,-0.10554597732078942,-0.025987791532084123,-0.4202523874475946,0.29681084367100485,-0.5420761492254608,-0.637847470121415,0.07601570368819525],[0.2608541328704148,-0.2578346267983969,0.6766208659717952,0.8169623299796596,0.31084769063977014,0.4417326856957823,0.19049061478853882,-0.08220078079443245,0.2973873234284668,-0.3883374718262753,-0.218932433291126,-0.014293968567761578,0.26898912583878054,-0.007906734830656431,-2.878732140658979,0.20457971122826127,-0.24558512284698217,-0.4574534426843119,0.41748771984339916,-1.2100079564456776,-0.08091847956376567,0.02746848694563572,1.008712360267764,-0.4850728685981362,-0.2272714086620815,0.5789663013410868,-0.6857973391511614,0.22366014536838513,0.5445203238935158,-0.8077922949809894,0.04840366555337755,0.3792901459342758],[-0.8154584599739158,-0.27734398848119285,0.01708358834950551,-0.7908621585624326,-0.085843268327917,-0.11708428542957229,0.055835276194942184,-0.2509160534047643,-0.44653665732626974,-0.11745107831469803,0.45811064651224503,-0.0606830715251542,-0.8098956155809774,-0.03525666882528769,0.037644723297183366,-0.050541474766416766,0.3707662161907925,0.1339284671304547,0.2589173438033236,0.17035250242049454,0.40651056398439395,0.3467745710658854,0.0277125612438726,0.6708601121296625,0.2788972625549765,0.3935982063008704,0.31536562522915484,-0.5907218163943725,-0.11187223952151834,1.1191813425823771,1.1399314700008156,0.23294757130174282],[-0.859548105782143,0.11571532582533979,-0.995280463196695,0.05276935107777399,0.41862085015739875,-0.3637319551881335,-0.7146505439875522,-0.2197579135187048,0.19265718778806723,-0.1600376476111585,-0.9786271642190758,-0.19543051717124438,-2.0337114291270444,-0.015562116990593317,0.47743084557865795,1.8024220217058529,-2.9977907873053087,0.10702189243639161,0.2863179953994331,0.8896907907732519,-0.25909911235380145,-0.6209352895315934,0.3243292786652576,-0.13306670646536387,-0.015814682376032445,-2.1651089765833738,-4.376345979823281,-1.6006419835999404,0.058584116708329366,-0.057391941055329077,-2.8096727657760785,-0.09019751197128345],[-0.08115414619796896,0.09982854914131413,-0.6775616022529112,-0.18475106442163575,0.12825868763266332,-0.0038191170406159207,-0.024779173632184324,-1.0013375430186464,0.2800863245285185,-0.09508697754608282,-0.05657825429463314,-0.0033934115215173977,-2.3037194591618144,-0.23697495459903728,-0.4346831710562259,0.020802722093053658,0.6377379650289495,0.10305129085260485,0.19812086926672343,-0.008300430219113829,0.2224353677760294,0.20677212183473315,-0.12042861393250605,-0.07092207050054285,-0.18297412602812285,-0.10776420858438233,0.7172805503328478,-0.7596748751287495,0.0064748657376520295,-0.4603594180383894,-0.26141601817785365,-0.4288793182601876],[0.3969652995509315,0.009407894926447233,0.25013003882127016,0.39516545060539976,-0.10610886899695306,0.3225313197286848,0.33146405697943404,0.14470676271039556,0.25323163450513503,-0.7943100154407623,0.20861968173064707,0.24895203136790173,0.1604863811452237,-0.10209262364175758,-0.23099224375361868,0.05688942189363533,0.18373847527352447,-0.34732873707704653,0.17962404336313384,0.09234714543229083,-0.11394496160333276,0.030284869327933183,-0.7734582848060589,0.09346919772567086,0.4255099974089804,0.4181246714219259,0.4286373261493149,0.21579908027026368,-0.44568453753791476,0.5493763348705136,0.36295044633443097,-0.03703170410137558],[0.3970870499470563,-0.15748461386978801,-2.869132518275018,-0.07054934530268547,0.3749967730768569,-0.18200299131385927,-1.6217968714551123,0.21907885020906318,0.09284121387819011,0.30843693053973714,-0.5556780811965817,0.15838360805454832,-0.7280739643721644,0.08432890490364697,0.14137407837485286,-0.9306284192827798,0.6547323370931903,0.20342571276376675,0.2537394386244615,-0.6358477762864237,0.17347283603182137,-0.1680890318813438,0.19794273828858536,0.0901601300006732,0.30334440367499066,-0.8656581095514482,0.8355638312742469,0.01591525601767337,0.06893214138387146,-0.1901774211149121,-1.549318888571857,0.2997588890600704],[0.13206164472794088,-0.12712485380823732,0.15620719926849974,0.47980447627750955,0.30009160081456404,0.4444356389218306,-0.2561302490380866,-0.09304900415452062,-0.01964221200396309,0.10993759205923441,-1.2298001269678949,-0.16821300979620452,0.44329865888388953,0.02041695558871387,-0.3917612404953406,-0.16676817797255672,-0.29811972582128127,-0.03820856982453299,0.04866970866938652,0.19431170105869788,0.045357065305398674,-1.833672871080642,0.4267861535667918,-0.0699979055927096,-0.30389056178051066,0.18969093488196356,-0.05289726442647739,0.37978431713666116,-0.11689907899747842,-1.100316689687073,-0.8668780296348029,-0.274757628980596],[-1.0848169628214328,0.03934357552062149,-0.10041019280929021,-0.23994616180155656,0.7864365002855416,-0.14205854380713515,-0.20148171568595186,-0.7549500588043593,0.25129260481575744,0.09688976518117919,-0.18268540603537256,-0.08952021591342996,-1.53646805618983,-0.05592417707942621,-0.031588683441019845,-0.07125645383677699,-0.09571589053764765,-0.34883430410912414,0.04870379809345611,-0.24307457875716107,0.2726789806049112,-0.0977973203842062,-0.09005992762641801,0.06228129724596332,-0.07390349980486612,0.18202458030214633,0.10860963716901985,-1.118943536509006,-0.33924675187427616,0.26370123843794063,-0.6041791975579779,0.19095088752588363],[-0.1276092918845477,-0.15500146694491612,0.7662585795871698,0.17774390673838156,-0.797751621642835,0.8650393464715217,0.15147568169109166,0.09680275794336413,0.08415880314971357,0.12922245017651265,-0.030848631339941944,-0.009721040613819398,-0.3983038407208921,-0.23682521283013058,0.8103263713884338,0.2704960684710902,0.17119017515411686,-0.036994977028743686,0.8385369865729516,0.46611873263657433,0.4789935375756445,0.11545944129007527,0.46629668665609064,0.13090057382363535,-0.008433586674931713,-0.0813230220327767,0.3933097453300629,-0.4779290606038192,0.2612705404413127,0.5211671207038451,0.517274260399576,-0.47221971921996764],[0.044260429333943876,-0.10920316387799874,-1.1314710556076197,0.325079308112467,0.08727045119072696,0.2302840757928566,-0.22171217906175772,-0.4409988477486696,0.0847954288457581,-0.21068397399612784,-0.1512509548717862,0.10632956044577507,-0.27296977292337893,-0.18624367896639576,-1.4494717954500522,-0.4553388720613951,-0.5955697825080337,0.2538147454292057,0.34881693172287465,-0.3187211437357252,-0.9837428503857694,0.11423350835751236,0.0709470118051065,-0.3677637918375544,-0.27266111592457426,-0.35478980077695565,-0.9542786756718091,-0.7027035810928538,-0.15583216495949193,-3.5443714975948324,-3.0609238728221926,0.13883582824743645],[-0.1416873447248989,-0.02872482450429546,-3.325435435791098,0.16313011453820175,0.06237423898367878,0.3889870009357479,-4.426989974781516,-0.1423325928665355,-0.3973894686727983,0.12423980250151095,0.4929876910820501,-0.0896961557863728,-0.7503797122436486,-0.21993708609134754,-0.5746163840215132,-4.075941633377631,1.8659894090065017,0.3102222132742576,-0.37455867244967284,-1.3822827534406892,0.11917247806311827,0.43781270168773223,-0.8540260605073422,-0.2128874499516595,-0.35826405647175413,1.5769766398846623,1.4614492848682346,0.6744352335624931,-0.3545365905892323,0.12614814095225615,1.7063136023178118,0.271714303259505],[-0.15454459112614746,0.060162113185261046,-0.5784274923340802,-0.12796305344976214,0.0875090592410814,0.05060352859014163,0.05020788101622163,-0.442725104574897,-0.35734814803529497,0.07151688139909552,-0.005748205637054513,-0.19766989534146612,-1.0576110935430938,-0.1447910665975842,0.31955457130435566,0.058770016421077216,-0.5209244023714628,0.019258706901023676,-0.022268889251879753,0.2752265011746732,0.22446344753787617,0.08436313748815683,0.11121046343735978,0.035974950914515524,0.33261626277298234,-0.08883455287914746,-0.8584335064429083,-0.3322150502290021,0.17314911469052158,-0.1578628110165089,-0.6037153740354132,0.26473678073756435],[0.09858555441958555,-0.1675948059798578,-0.021389868439755048,0.11101066949808305,-0.32691044529960556,0.1557036488952084,0.13386941991686419,0.40015777233434285,0.06981031690077663,0.2951548072778774,0.17121095464059094,-0.04815173139709594,0.21240731012867603,-0.05110049238479719,0.031956084895560316,0.06753874583618617,0.015666756116757847,0.028269229922205645,-1.300549834810044,0.1608460353866699,0.24139618902155663,0.5556165756115301,-0.06327523172723928,0.10348201746919189,0.1666335513648204,0.4583260124408928,0.31718099805345545,0.281519158032177,0.1704458912293932,0.726427714801198,0.2686350642386652,0.4927552104630619],[-0.7284491056578548,0.018813658431961346,0.7455824121074792,-0.2690976405662119,-0.0447864569523307,-2.604858167327435,0.20930044884865628,0.0801109011328893,0.08253085933219398,0.4829850205743613,0.03622614681485027,-0.08675056688336216,-1.018239562112675,-0.2239880818383336,0.06759116397529973,0.22635733024347626,-0.28569608494220855,0.06803376159420511,-0.19293651350133362,0.14083890049255965,0.1594083046944013,0.13866441386682948,0.5031807867011795,-0.05344870713716757,0.02456245837663461,0.3869894742954746,-0.3942944737554013,-0.9693648342399572,-0.11293076243057712,-0.9738157146690791,-0.6176443346032867,0.20192694584657317],[-0.09273139119215494,0.08230782588887663,0.2764985703576327,-0.08265857537533079,-1.962819381036169,0.4137932249620918,1.1257320688163694,-0.04849972163494848,-0.42990092219131315,0.05395776330965912,0.374615268518662,-0.1614326983277838,0.07978796581425769,0.015077725176269985,-0.2785639494438364,0.25050196940200053,-0.06484416837891901,-0.18218459937777987,2.208929906151,0.09525233119421557,0.2573841848301392,0.3480850179713382,0.9411575278144086,-0.13214807872047063,-0.20917653864518773,1.1582627703187502,0.43257433754013386,-0.04298961153722635,0.004594422083131827,-0.28561485065828,0.5688421099658294,0.9718855685266742],[-0.30227344924463195,-0.16332442395693428,-0.1124025137187799,0.15566528607368585,0.28027605022440505,0.1797464787499021,0.03426091807248224,0.26874377137469063,-0.14093115094165146,0.606818213753332,-0.10212668439606078,-0.22301006315881855,-4.701491106944684,-0.16162551911161036,-0.10009276499410222,0.1244234723362344,-0.154405307967341,-0.2886841667734014,0.29411668624158727,-0.2492280972522546,-0.32215234636531226,-0.04191880352392069,-0.01891214677647827,0.10719865639198246,-0.12610109272127312,-1.2329359970183533,0.1681958730674325,-3.0671243879824144,0.05588883867543086,-0.05243271531754446,0.06802463269150719,-0.26412401773662875],[0.5078350811813204,-0.20398598474887678,-0.21266193565418243,1.2991486182392584,-1.9568859846867281,2.608888117111225,-0.8424776089464237,-0.002036086391038387,0.5664063968953277,-0.04037535536628971,-1.037058198813034,0.1556154640417618,1.2566449623403448,-0.24918863010991762,-1.4899297488729677,0.26064820653772186,0.409304120385273,0.5199814580357193,-2.5772839468290947,0.22437479781115707,-1.4578286271971885,-0.5748547178359711,-0.3718308051738984,-0.9656035125016017,-1.0695308941477504,0.3037850318113497,1.0388741803767152,0.6699893591119942,1.810631110480532,-0.8813283111410686,-0.7108967928907927,0.008961624321974402],[-0.24624515195505256,0.021850903276027643,0.8045231986122042,0.1470133944427688,0.17880463130460478,0.12064209428217511,0.2748381926437301,0.18490089173817828,0.2337987934755246,-0.2971004910537673,-0.3005869668543337,-0.06554481378549001,0.22273312952487787,-0.06381122276114592,0.44866346852548705,0.09205180583826049,-0.30318436938457105,0.06097068362678223,0.005920786776369878,0.4414219642534123,-0.27777955035656565,-2.152380885776235,0.3892178781546216,0.2801717924772666,0.3015991077351759,-0.044491409878964244,-0.6301107242331428,-1.0190043825808301,0.19139607534055675,-0.29441546274118036,-0.6482004993550983,-1.666672409509619],[-0.2342935039155992,-0.1434596352874996,0.24115576865312752,0.026816414018098728,0.2685520278717879,-0.5406848422828511,0.0012589699057040818,0.03317109625218416,-0.14197010503878446,0.3681036945970268,-0.8582868877336094,0.034002304209397316,-0.05638023121482396,-0.038480525248477386,0.0010470618144987304,0.27218285712176843,-0.37219136366217964,0.05145198147817243,0.2440730016715939,0.2668193638148535,-0.370916035968596,-1.571220629229722,0.39457825953426734,-0.07874667106849628,0.23431551508637913,-0.278194334032749,-0.9573052883818262,-0.8298214822398908,-0.35606351363874145,-0.24155627350860076,-2.601380887317009,-0.9689282653089734],[-0.21692724011643813,0.10749344171356182,0.08349868427953659,0.8151780081541448,0.7242573748086631,-0.1059322069418835,0.20069764448107796,-0.3755585244032916,-0.696093644944442,-0.667115251596469,-0.7989264380856639,0.178201154073794,-1.2415476234871512,0.06508719935784452,0.9295104007767895,0.14711159545532898,-1.577913446373712,0.0036100768906048033,0.40563903536939444,-2.041840625706025,-0.3835990584967063,-0.35978289421443355,0.908501478324093,0.9029188028213446,-0.4975267924651999,0.7242315090655261,-1.703118598813399,0.7972827847970323,-6.386314216087489,0.6129928853447318,0.7413399814545729,-0.1301405384737655],[-0.12088496758073972,0.17420015494059501,0.1048554869790896,0.015750445292754888,1.0231424474717994,-0.5447348866075327,1.3497984096400453,0.32081224903098093,-1.963899578275148,-0.3819396920429199,1.7604149751209486,-0.21277946232016173,-1.4903864710399493,-0.137952089257516,1.182077107127393,0.040740878765344275,0.3212928190664942,-0.00010200877874661863,0.5195596532709053,-1.0747249363895157,0.053255055839648555,0.06621143810078577,-0.9635245922661708,0.8100112513309173,0.18899264210512212,0.5470949883563426,0.22472858328868095,-0.08982147506551856,-2.118183909194499,2.410084317490777,2.0107420761902364,0.12218399294820166],[-0.8386069051884228,-0.2446440167682975,0.24061531116551102,-0.2758743178305427,0.07764283420671617,0.45257585028171776,0.24684949927940408,-3.233937898881108,-0.016167925272185895,-0.0761220061082577,-0.01662197019601799,0.18389683982073185,-0.4670008038913664,-0.20782059429111918,0.22556706066604892,0.14265369615993043,0.12378432327450359,-0.5537208456454109,-0.008573424275984221,0.3326265815665787,0.08262866581427966,-0.13978457235347583,-0.23961239265050532,0.39165826941294213,0.5424591596320052,0.3431904609152671,0.05446472555520227,-0.3184003043166138,0.052086081975430486,-0.12814919882817352,0.10906085584739993,-0.28769868483077277],[0.14626074769200997,-0.2624862120624819,-1.610868782164008,0.38927292114466294,-0.02765541660433004,0.9047450704867996,0.01509599690716703,0.11613528684207117,-0.037137590535448343,-0.003828577564072209,0.1952263233125663,-0.11157630377522498,0.1810343734364155,-0.18195222610297573,0.052434802725532366,-0.08819499039943046,0.3807366710865052,0.2724235696312404,0.19446980814009562,-0.04615518109998243,-0.6280023851678056,-0.00016709316849329461,0.19686645354842833,-0.04612762830554617,-0.6706829705243863,0.09875775752382107,-0.20186860909473248,0.15424258344890934,0.4148658504535802,-0.710333595129308,-0.3157388757214075,0.03413096439464822],[0.08243733664254022,-0.242261561204979,-0.46013396080231006,0.28155155883326977,-0.13640319331475398,-0.15325946912264563,-0.8224801167319554,-1.1963885210721705,0.345433679190068,0.34000129940800594,-0.4777164281050833,-0.24602794647031834,0.3209460052342444,-0.043051242732001116,-0.25744262845227983,-0.35080524673804897,0.09986255667247264,0.13178139555895618,-0.7097920651194064,-0.41133355745060424,0.36262749606868494,0.26312383492722163,0.21532917886228803,-0.14356489821721838,-0.4672182558181746,0.3881531818556535,0.1942111135545715,0.09698002523688613,0.2225438505563568,-0.31395423564721187,-0.6032303105629991,0.7513991737296105],[-0.35516278130026246,0.046957751004034744,-4.59115139093867,0.24691996775454675,0.3956697075942677,-2.0539785379068802,-0.5593336840364209,-0.12470884207245934,-0.04371877026863154,0.10202495003478547,0.45078898870173706,-0.24625492095772872,1.60268657410919,0.18686695529148328,-0.8648705270212079,-0.8879496225576823,1.3119963799976406,0.18616982479700617,0.3732115781608619,-0.22220737310164013,-0.015555730947359873,-0.608670146385576,0.49344960114495484,-0.040662046925047865,-0.5618699179879736,-0.3223904536046589,-0.9825389400837758,2.898654219001523,-0.17929533727491592,-2.229452031577291,-0.32444289924590025,-0.9356477353595242]],"b2":[-0.11517139492025387,-0.05580392320822529,0.1290826918119462,0.3661040902967656,0.1294919461358932,0.16660913780435987,0.18641684721940985,0.022520029051583113,0.4639037702023547,0.21191252993209916,-0.41730709235134256,0,0.19684423630389322,-0.04801778409126378,0.4433019956057425,0.3139720727569338,-0.14941902645247304,0.4075375558378267,-0.6542897233034903,0.6589680689997836,0.029651480391141172,0.06616097399272683,0.008182839674292028,-0.04368629085545444,0.5873275920483052,0.41824916467911005,0.2112375464853584,0.33951556874247074,0.5621389688230232,-0.05159919149802169,-0.28436909420440765,0.5241768601686246],"W3":[[-0.3919327127108292,-1.12629829671835],[-0.06346058067349092,-0.18340627382949354],[4.310451046069554,1.0634841722943198],[0.08898626753651871,-0.3785323374523906],[0.520805487629192,0.1412635697591494],[0.12288556541052652,0.5644252255145694],[3.193292887179235,1.13335344795977],[1.719165816336348,0.8440706973558952],[0.4446596901193204,-0.2932609967801479],[-0.4360600305403597,-0.008238774481459274],[-0.6538810724738573,2.4055163998365323],[-0.17247503992285348,0.023313120134786314],[0.7909169219725416,-2.704001576267435],[-0.18891798276107938,0.11076286674052793],[0.502620448578483,1.3818124269038754],[2.042648037619934,-0.0621003018676224],[-1.043510170560378,0.13975989736094196],[-0.05211709015215206,-0.3345842793336947],[-0.5987355336275705,-0.2730834826285246],[0.7313133788348057,0.057246994409128685],[-0.2835706621865451,0.5268850311161594],[-1.5611129287714798,0.5607550459683807],[-0.5723013693692083,-0.034846706715161],[0.06081722362932695,0.33816815936623745],[0.33953444430065954,0.13896011233019087],[-0.8602688172463698,-0.013391326417873566],[-1.4100544755452322,-0.7779159628758646],[-2.364535266006674,-1.4779767340308256],[1.10813621528307,-1.311292516532539],[-1.6832678603442142,1.6866575794787744],[-4.062372652653519,6.529283322546323],[-0.801443184321941,-0.007026584639129974]],"b3":[0.13003497848852805,-0.06147556112528426],"xm":[0.32834000484210646,158.394816925637,-0.06275359553023356,-14.245164175419896,4.424581571427108,12.28134654395323],"xsd":[121.56967427497405,253.72358671136146,8.43991084907883,17.783782116234704,3.2316465552612033,9.546134024453044],"ym":[-0.5675801912562034,3.2462437775017317],"ysd":[1.6474191905852789,4.218847871268035]}