{"mode":"tgo","arch":[5,32,32,1],"act":"relu","W1":[[-0.17647343829019477,-0.5121005646218942,0.6720201229295789,0.7796934384173237,0.33044715832265276,0.33051401210233194,-0.45092601422765144,0.4395150841001063,0.26771426979949414,0.8099459841177925,0.09854191149793354,-0.7826790417872515,0.8280090419038666,-0.6700456564299562,0.006967200437873934,-0.13506773861813007,-0.21396591142567975,0.7048975850688887,0.18310492797718236,0.6169161806546605,-0.9482838148769274,0.10946320750392295,0.5082945038050756,0.07880650331564112,-0.35514239836542993,-0.026634510485163607,0.1969980215201418,-0.07146896819950625,-0.19765120367928826,0.21295333438651076,0.4016240922478202,-0.6299867088448636],[-0.31943711553282494,-0.3589353471943729,-0.4340873383457533,-0.14558043239881982,0.7651991160379314,0.3184248589394421,0.17602217381576313,-0.5138965754463337,-0.6677402784245421,0.1998493931352102,0.18735035296056615,-0.44549353258494323,-0.45675423656767694,0.4096390082731315,0.7007622395568713,-0.7605289691893609,0.021727538334785697,-0.9148762512636356,0.3132265963044769,-0.7191628329120155,-0.027885545814531256,-0.23743698533821794,0.25353995535590973,0.05447226966577008,-0.11422381738401455,0.7975474756962082,-0.3074177608708488,-1.1111340406271473,-0.7365084103233042,-0.38580964273665513,0.10834887813533678,-1.0314310545133825],[-0.2626920448763307,-0.22194302884294625,0.02130122035583318,-0.11030471494153342,0.25160206862883205,0.0789804624802227,-0.3703225022529545,0.170548587440352,0.27612729993690976,0.270302743756496,-0.31621741440974366,-0.32038409835835896,0.1944209963008367,-0.2774369004367057,-0.029499653273042777,-0.356541425958815,-0.17596679952005348,0.21725864493864905,-0.01323391658640235,0.12554568155005505,-0.020056558593170574,0.4239108552243132,-0.16415997597759116,0.06295914310670091,0.03809915552512221,-0.02486395899859833,0.2313219446433822,-0.06552276706351497,-0.1472851106801671,0.25820656900446337,0.5114899165205187,0.09293382646539979],[-0.6798103884236062,-0.16554949874125788,-0.06515008594069596,0.43008309462379457,0.1589532645017028,0.4265947809951591,-0.42932650933054584,0.3485971002531051,-0.5529742514325932,-0.18923612941524004,-0.06412117342036687,0.11061147419052157,-0.16618881924418966,0.45146137962366056,-0.023116163100249023,0.12282286849873601,-0.19052154098194526,-0.2932036285205964,-0.33404527823407526,-0.27336549610507643,-0.02554877495876313,0.39803460370548494,0.41839897675892135,0.48840702498788907,-0.0216008089391439,0.22680768462180453,-0.4114053128718871,-0.8743913622666508,-0.3922119767304639,-0.2868362201417434,0.1521835141348981,-0.08639765481197743],[-0.2606253228409313,-0.282568170398443,0.10714513053496208,0.4350527313066401,0.06935421123839977,-1.1247750702560795,0.13309605049996134,-0.3644161667274132,-0.3286436868832007,0.05119299371089839,-0.4728264162775447,0.24592969862271316,-0.050340619475964535,-0.5228518751232716,-1.08355372129265,-0.09908618374163734,-1.1178333123897348,-0.07749428341009633,0.8104622768131362,0.761743369287416,-0.0071818896449567845,0.4624076719532747,0.3086678683241839,-0.5575360759962413,0.24844490247914083,-0.019903484558325742,-0.7358156834870814,0.39052841086161966,-0.46871024035224906,-0.8206495315308865,-0.3320422720432789,0.1399213827657349]],"b1":[-0.8985561257381846,-0.45537154688052905,-0.10848772046059703,-0.2188543363097354,0.5966912314622672,0.1545300433058215,-0.612307297658041,-0.47287996287379463,-0.7267746301332342,-0.2681976022197789,-0.1440163879847046,-0.327713401284562,-0.4338911970505603,-0.11922754736279333,-0.16657428038972075,-0.3147887377965275,-0.45662113973217106,-0.8094652897463692,0.7742006583236336,-0.09566007425474789,0.007814136230981638,-0.09867783779508976,-0.15007343168659712,-0.24100261896129893,0.3227048160218495,0.49788878190705843,-0.0853557189716003,-0.8265535171285012,-0.8219496411799775,-0.5777820168629566,-0.4395716379032506,-0.10253692925682821],"W2":[[-0.5364349682880835,-0.505390886672319,0.4454461611592125,0.38666631588759665,0.4391863102967935,0.1649898936768198,0.25858382742010433,-0.10534587273571615,-0.38539702416706423,-0.16701298247453672,0.9026456836506753,-0.12260678076434692,-1.2324773701164822,0.193024054375954,-0.7790952691963534,0.30746190476904645,-2.1654000415943355,-0.12523172789962578,-0.03309030852539032,0.2654097968489169,0.1115770954249996,0.026514755033017253,-0.12874043239072294,0.1459904025452153,-0.43946234766244857,-0.06967658427491352,0.22044952673628887,0.3056289056387606,-0.14545570534247265,0.1077792209790269,-0.4904805300047504,0.17321556767680826],[-0.7457852286950145,-0.39637306403699196,-0.528701918897686,0.10989958397649276,-0.8659118250324056,0.018638655707143716,0.15221156688878976,0.02353958784219241,-0.27584451298004176,0.25132797912673505,0.1261739183945041,-0.08479528746081717,0.24944702131814123,-0.0935602187381872,-0.30320104604056664,-0.33290743089890534,0.04503842380982814,-0.06331790562720058,0.39724689254419643,0.057969762981830784,0.08522173844265046,0.29167781939275045,-0.07761121174048018,-0.05031576646358614,0.2606662314643978,-0.372150369782874,-0.5704939856665958,0.26120409527098765,0.3073265461070423,0.2933855796853884,0.21312772611177774,0.6860942618762526],[0.45633327100068316,0.40437346264698415,-0.1809438628534938,0.01925175657032939,-0.15345888862601598,0.27884708950965315,-0.22202641932290265,0.10918184655001174,0.04324195452611188,0.05784151759918584,-0.11666527587273112,-0.20726287362969614,-0.18206036550627297,0.12259465473359205,-0.09770174592636899,0.27196929239885204,0.33367772156775327,0.16118556280209945,0.13497303632671953,0.17896272224547033,-0.3803678679032378,0.07566429144114298,-0.18648000287452982,-1.1604193022869729,-0.15978484588318964,-0.01922875982493775,0.00881912844421451,0.05005648351573373,-0.1916009473870371,-0.33857612252083613,0.29566685107808877,0.032528531295528025],[0.32756116975728283,-0.04637616160191444,0.11233866046524082,0.07920482960456186,0.2774175997221393,-0.07948285643271318,-0.09824206828196569,-0.20743879673883264,-0.17149366708565217,-0.06115627246174012,-0.47343853450153434,-0.002693533782238855,-0.42560726448793934,-0.08713279656932355,0.21518094316297076,0.19214609715977743,-0.4804071343993623,-0.22904770075299205,-0.1742616739590645,0.00812836232017131,-0.3149834855052859,-0.05556571338176423,-0.01200387288650294,-1.132771056555437,0.1922451866954047,-0.07205456201521684,-0.022218343523983112,0.14803055614313787,-0.015575858653078459,-0.4449458896178418,-0.12509436554957928,0.04752114736755919],[-0.08963093842520654,0.12746908112348002,-0.8601401387400036,0.2731349356128061,0.08294843205739531,0.2219976929654745,-0.2866117959573058,-0.15161000187583734,0.20945008657903133,0.1882828993270894,0.07514053849334859,-0.07360916045164045,0.14609830041773464,0.023692842628122695,-0.3168277855851031,-0.34987060104574963,-1.7595265037305579,-0.08376100728754299,0.1758536247681467,0.3334028199131036,-0.6852944754705141,-0.8445175231652969,-0.2767558911671877,-0.38942800689916485,0.30387852663392556,-0.4702290091419962,-0.1568157714053822,-0.12571604523674013,-0.13338290618229895,-0.2566993955659496,0.14572680123861148,-0.4065908518529814],[0.2803666254453037,0.030581225054591123,0.25375696036573825,0.3168226224905263,0.41142663448787203,-0.12810292773212534,0.48939775955364245,-0.2193406013076597,0.27927732389875054,0.04591017461362679,0.039379519236783386,-0.04747396852854257,0.3541816466028433,-0.0813344072442768,-0.20844056624607227,0.3572084730781713,-0.310360938945599,-0.20182113613430086,0.45971836690823503,0.35296473849127724,-0.16883091089065724,-0.5461338485802978,0.16977324033703273,-0.1281026851959376,0.19579185393073437,0.5669787592908416,0.30317422047320974,0.33684370770079236,-0.027218964354638248,-0.41285346190717487,0.2936631248250021,-0.3290341123877209],[0.2643491612708798,-0.05160911948106381,-2.1642450514950595,-0.17646248100293682,-0.2950447045633597,0.25160512780638855,-0.3060769889748835,-0.24276108553959092,-0.019453803505391228,-0.11185870215548073,-0.15740127070745696,-0.24788922322887189,-0.4174478447186233,-0.18257996562649634,0.06417966449154562,-0.25139131692039607,-0.5587151933469517,-0.15796574917334416,0.08984362006542898,-0.03914944507990966,0.09452434474943634,0.3998818742979807,-0.3163901960820248,-0.3701937725831305,0.02564194844787657,-0.5329335686719274,-0.42030565377564993,-0.7628076387679698,-0.5380045760419244,0.07619748313529322,0.2185845212550192,0.5406863892652488],[-0.05314299553000157,-0.3219651473781402,-0.21272763887820165,-0.01654600591168985,-0.461638529112538,0.028752934635373255,-0.17600925367881837,-0.07947259162266605,-0.3437103586937495,-0.26277402500614533,-0.20306482952212215,-0.2529623324141141,0.10536743946728529,-0.2091131210136754,0.02591967629891244,0.3814633896331892,0.2970389890757184,-0.17051361694062758,-0.1430631324196756,-1.6592241250643585,0.10090560412796315,0.23911356465362574,-0.10936464231627528,0.34211238313010855,-0.0541727938972899,-0.08848496364930436,-0.025026862117670037,0.08637901245834781,0.14982185305155718,-0.4366196165933728,0.2602733592645696,0.16558009989991257],[-0.15774082069080478,-0.4469726438510935,-0.6241147488082398,0.01631103573060752,-0.7330723705896415,0.4292431891001165,0.049672042480997776,-0.010463952906645813,-0.6831682925612291,-0.9971056147657814,0.2898472317597574,-0.04068987554892361,0.2267763808474041,-0.007906734830656431,0.8281929483258886,0.3117757688229351,-0.8693358078624064,0.01970786274525214,-0.3952441798913029,-0.033886908046753185,0.4815247213474732,0.1652650315844559,0.1781810411456932,0.07327241314792879,0.4400947346171966,-0.4029219874599479,-0.3382344143315056,-0.9115809639424192,-0.312682754714633,0.41325361754314816,-0.38380365883640577,0.35703174220401607],[-0.08704892597671807,-0.28597467240857743,0.2649808544233266,0.05735953863313402,-0.2633107632263922,-0.19082295272821662,0.06240744015638016,-0.10074281685554554,-0.05759738157022006,0.03964554011039489,0.49618218287586857,-0.08598903351556274,-0.19683692583305493,-0.09786117675725947,-0.13255787470676192,-0.026048699958299202,0.11043523221684336,-0.0743468756220948,0.15026328085636861,-1.0998482346484943,0.47797776662878827,0.39515452708157855,0.147843111125569,-0.051755041622882296,0.16699391180863618,-0.34449662232512457,0.08439827061764366,0.03727477007689329,0.09886857684588653,0.03176526343129645,-0.06549673056001086,0.2639465074651026],[-0.32572530931994514,0.0581190961067767,-0.3503207203688063,0.29935979185545925,0.179388997414555,0.07105018275616706,0.23127465708084746,-0.2046867028746225,0.06605914125749852,0.36485076452644344,-0.11923026143943477,-0.19543051717124438,-0.1018677885043791,-0.07900042872743832,-0.5780812635415997,0.209517271510929,0.19045729936677186,-0.27767704088924566,0.20016037863802497,0.18071237271474078,0.3462381750393621,-0.17246400780632629,-0.11086041681801202,0.026638562876571546,-0.29731207630080364,-0.01281876513205233,0.038532855190559816,-0.12584370314978174,0.4049958429733597,0.2753664944730745,0.06558575692398161,0.0854135801507078],[-0.10268351202332676,-2.2369106229497815,0.25411890659720754,-0.10952371692179035,-0.17977213410866982,0.45145034649292515,-0.24486085600106755,-0.13214893234331665,0.23256949190541537,-0.20726103348166522,-0.14454517579752774,-0.045812421543603245,-0.1671594889823269,-0.23697495459903728,-0.05703305063490375,-0.011886734032294326,-0.8575667789972935,-0.10898329226589488,-0.19700783542585984,0.7462369701791243,-0.2521686298241585,0.13677420153097475,0.03678642654283321,0.08724031487561831,0.07244238226614041,0.17672635575035525,-0.08647425188789018,0.6372225774398204,0.296275369066382,0.15085077213027567,0.041564622163593634,-1.0456272103701367],[0.12525311187800037,-0.019987975275884078,-0.5462406991900302,0.24004804771663868,-0.527854952646579,0.2077417519835347,0.09728185907091243,0.1620102878110826,0.047963667977037674,-0.21668987573001183,0.0388541002397938,0.22082790783943404,0.08536413449110156,-0.10209262364175758,-4.032789669462911,-0.08227845830652596,-0.2603187955179763,-0.10729491364636616,0.2451343501578899,-1.1445233933726697,0.4276546359206444,0.30167182643461804,-0.09542646499623418,0.8468640048923657,-0.08255467711841301,-0.33648680566233696,-0.16387603325633096,-0.43049248459898076,-0.7452966951997498,0.10974966742685793,0.2819089745820476,0.26983094903231586],[-0.3548144067300969,-0.1687604608708014,0.030837152644925928,0.24176805096611362,-0.03817652461289659,0.055524490474170324,0.13177286903673174,-0.13571739378895253,0.01053612099348365,0.06572360759181478,0.2723733740258771,0.09765090142141725,-0.3132655358597085,0.020876973884782962,0.03839124196501292,-0.4752886659742077,-0.229349873922867,0.1990222939793615,0.28662260158301817,-2.2372798297881404,0.5124846355163666,0.04397901750605444,0.026849042302224593,0.4924560642135266,0.021130299163250113,-0.0108767818716542,-0.05775039615715987,-0.20670615649621965,0.48505694710201935,0.3079173459617099,0.10647421729801913,0.10961356066351821],[0.019347302282381337,-0.04701895579308028,0.41286147215320457,0.3991835196475325,0.1136622925802702,-0.29028758086274714,0.33120872075208235,0.17474352145689062,0.31867402093538083,0.30205637710895944,0.4105045157275222,-0.20591371485582516,0.3754932327417479,0.004978531292301932,0.08250482399523903,-0.36971150807760816,-0.7393901132563074,0.05168546805032597,0.5232200892464268,-0.5162659581782348,0.25347816644279697,0.41577912017669966,0.049654348012750184,-0.005923855428197397,-0.08568995049351241,0.7109530832750816,0.3245177247835599,0.3993335872591771,-1.111200153172681,0.348951432673015,-0.12281877528962058,0.5603881728765411],[0.23662556923402794,0.5711075485362842,-0.08275984474303169,-0.5134633024663923,-0.28351181860822877,0.30404395361756886,0.1687600815334417,0.029729101392950624,-0.032071694250526306,0.15257488772109573,0.16722871683955176,-0.10406064764011308,0.07465346798157113,-0.05592417707942621,0.1527111351263433,-0.044854057642545075,0.4683946204618527,-0.21474780829045684,0.20823826240250667,-0.4854003211858857,0.22465537974385535,0.41989796949555563,-0.012364699556108312,0.12169441055666147,-0.14760787418452828,-0.05765418206764166,0.08032302366381638,-0.31343989743551165,-0.01711359534582855,0.2539015393198011,-0.2936950419460518,0.26896985891490033],[-0.14420818996295173,-0.16694071255303963,0.03633059635692055,0.16720125037615347,0.36802003156972046,-0.3189022835565136,0.7836836537136435,0.0074690012697988814,0.5195049431497683,-0.05067956429804421,0.21674215578130027,-0.042155101502712296,-0.18162752554520475,-0.30009082850880703,-0.1498417766869948,-0.4720507922226459,0.2952875849957809,-0.07741361954304983,0.4875934548292837,0.48013311519064533,0.3868348012893691,0.22407105747829129,-0.015372684093180235,0.345801753135927,0.14841926576910922,0.19068726741425043,0.44738847271569554,-0.24430677146881963,-0.7158873116607316,-0.05455359698081169,-0.0972767003196985,-0.07560978247135226],[0.5173478913126359,-1.8119894292663323,-2.170992707158841,0.18587125151673667,-1.1030514193905485,0.3036731284125426,-0.16456100608901705,-0.0011949887910056452,-2.1170320556897475,-0.38930863049783027,0.16019800906570544,0.08046316023999799,0.04674988725773078,-0.13824306609492892,-1.4718667352321817,0.12108610884787606,-1.3892050369294249,0.0912972690264216,0.1983346782429164,-2.1724068236582004,0.3823942479281305,0.5229105605493662,0.019565866957010312,0.020346789703362043,-0.5182918339948291,-2.38904354166496,-0.5479253681346383,-2.1536707726495186,0.8934319280590493,0.4085433276803648,0.480255121231341,0.5701935801109881],[-0.3378359583267983,-0.015246565255506939,-0.26638868211924344,0.11869674114314775,-0.14306933092561028,0.34834027876041895,-0.47343576550362065,-0.12599563164241936,0.1267729693299253,0.2754505629674211,-0.4471307670137055,-0.1536488658781428,-0.21817369443674875,-0.28307463886202766,-0.13052971419472117,-0.06804865404948439,-1.9967804710931416,0.05783968314855703,0.22296976255731366,-0.28865518648925836,-0.35624399240194987,-0.11276771290258314,-0.2502177711879761,0.14263820956449894,-0.04338780307999194,0.11398581573219442,-0.16182744560355058,-0.2474023650257169,-0.18974774484310108,0.05530955104508171,-0.19118536258481947,-0.2564129366747873],[-0.09587094854271988,-0.05428241184112863,0.33798148662068794,-0.01713578162533233,-0.3355406150895767,0.41942253050392053,-0.5870000872106962,-0.23382741212091754,-0.4596611448565403,-0.19235435316508856,-1.0642130864542916,-0.2246420733888747,-0.40850044113207734,-0.1447910665975842,-0.005933559495455654,0.019956298117876886,-1.0318552684820232,-0.2883905971898766,-0.17412228950826913,0.1037353909007332,-0.8292165991996693,0.019025246384140555,0.16284588812583206,-1.9810426416493292,-0.49500964230228994,0.06732660082468495,-0.03200562235842081,0.2760643581475153,-0.18567941858574002,-0.3258798218746592,-0.21815676892134042,-0.625039754935906],[-1.2744399105099946,0.07503850869741328,-0.623070016983669,-0.4368093975589224,-0.02301515933081038,0.07537120408259398,-0.001785174635736265,-0.1888255264091579,0.1136666425019424,-0.1121648298229385,0.011385504716603064,-0.08446975632797414,0.25290393726801785,-0.11378587780710386,-0.29959716839857836,-0.6771569472258786,0.23020380499101842,-0.08392816648911379,-0.1057720326766687,-0.08082929960730775,-0.21689580953639817,-0.23196586632609834,-0.1503998928501448,-0.23308613055976,0.3529609812818964,-0.10472027399183378,-0.07490455199419284,-0.1668895032877937,-0.9765466222751755,0.0600116564921418,0.2151646209811908,-0.3584752447108614],[0.03457823755957334,0.06280983491110004,0.2723876696543284,-0.06656628113869928,-0.0011428828130459576,-0.1738562290292703,-0.4362044870753731,-0.13596756751664224,0.3195727605797529,0.09708823065210181,0.19675474354414207,-0.06427998259413152,-0.5079088926625549,-0.17603020366562072,0.13448056331799427,0.10083259210242418,-0.3052997701198892,-0.04349096254570048,0.009997180409401606,0.0699584322615151,0.30225150435769793,0.2858560365773754,0.06109700324232026,0.21618132674343854,0.2901743253807197,0.21951907727054373,-0.006770044658267484,-0.08857287221395405,0.3096602858663697,-0.02421446123949588,0.14024992314337228,-0.5436551897890664],[0.07957992304574428,-0.11815430142169317,-0.16933515512936007,0.049085645680790824,-0.3072914276395104,0.3593089399920382,0.06990712763864283,-0.08232413093647685,-0.09172821522911903,-0.20728593388936767,-0.0789189999250524,-0.1614326983277838,0.05921188728888676,-0.04793908605581435,-0.21247097199775564,-0.058572873477609935,-0.8782121796954642,-0.15507406580583477,0.04044228301967395,-0.17517673468512795,-0.10923708372827269,-0.43017415546723453,-0.1416436614951712,-0.0515992887181168,-0.1470084405714482,0.0044047738620633615,-0.21643250925634952,0.05911555912154175,-0.3770635310505645,0.1841472237196849,-0.36405666669208636,-0.19926169305876498],[-0.12718177624322333,-0.702449466749028,0.20441517199149273,0.03311378846784469,0.42661289781754663,0.30328400971514385,0.16538248613382706,0.16443357198202538,0.19310713118975315,0.18140828356838107,0.3132362855685634,-0.2471702303499367,-0.3526135080176676,-0.17695147998515998,0.08631704478326613,-0.21025996209232597,-0.2304528913789757,-0.1444128281543879,0.14390578606527274,-1.725465171717938,0.06642287784366735,-0.3964374849915666,0.06808212689717735,-0.15056777953701495,0.25152845317061173,0.01718767400078933,-0.10336308096349842,-0.05618923996811374,0.1984108710848325,0.6219309722879934,0.23176575266713498,0.4830477293004597],[-0.017471018976125397,-0.29659635741355195,0.10072915241685575,-0.04953218476631663,0.0571075162931528,0.20374006293988162,-0.1985761307258186,0.19514094592241968,0.22574848200088105,0.0870860234397913,-0.3053760525609994,0.08674208186308023,0.400152021690291,-0.20121616122835137,0.11559550980192407,0.540547692048469,-0.08575646031266602,-0.14962473430044554,-0.18090241373124108,0.01371672994303367,-0.33768707289525346,-0.3881233542059237,-0.17914722093244898,0.09195538783150425,0.052173022929678875,0.030393490443064435,0.15307623759192335,0.014081242294877144,0.02275053602372223,0.24770303452732703,0.4622937564075742,-0.04832188887345366],[-0.22946791597496638,0.0904669419433177,0.011648676982572118,-0.050826584199216006,-0.24588690733095608,0.1642584668990007,-0.044029242407533496,-0.06956138900266728,-0.20239008750791654,-0.48912183198417625,-0.5397617002858032,-0.12480235580229389,0.09484226992758318,-0.07931584244480357,0.33443996731997633,-0.06928817200214323,-3.923024307051874,-0.0338746200869206,0.31478609721135925,-2.588812212341794,-0.11631635790074313,-0.23454531975335932,-0.12769050353474587,0.08610907444504974,0.1808755857853149,-0.9041490149095915,-0.4386365226257731,-0.036267448046240866,0.08633860116706808,0.03637555640037804,0.2287963034473758,-0.6820841149790561],[0.4771231234678617,0.6601049480747426,0.3450940609422915,-0.10405701166963643,-0.09868444523394526,0.01904944348723766,0.40172138780289235,-0.14863985772181296,0.0527198074057623,0.45740909908559924,0.055588171310602334,0.007968207251506505,0.2902725611851211,0.009521484495849108,0.1542998886036356,0.09886496678575839,0.03990515468193605,-0.06353578523869328,0.1083203178402225,0.12217231861593715,0.1376954590814747,0.26535707206153314,-0.2321431599277184,0.05383526211901917,0.15201363544593643,0.09590252320807582,0.010279137687122969,0.27038271903410577,0.3301572974854291,-0.39713167398085114,-0.2131530377511578,0.3210828506838738],[0.4982635689331464,-6.777593239140208,-0.337491058740273,0.1480727056698688,0.5653035185701843,0.52612499900117,0.2739650076592695,0.0436539055284364,-0.7075543991680491,-0.2627704374064719,0.38526680977099276,0.15157997020396255,-0.4119658566315779,0.06508719935784452,0.07236228360235133,0.13692493332209202,-1.121389886355324,-0.20412169394740914,-0.07300392380043842,0.060828629104804896,0.39143038866887564,0.02859534944099388,-0.23332971333681127,0.3233510018768706,0.23449092539554964,-1.5426949232533604,-2.928478710353256,-1.8802721078110598,0.32609552576597195,0.234472802571215,-0.8442082654862461,-0.11049361363516268],[-0.5540082088101452,-2.716493331254186,0.049932405467485105,0.2739498631597819,-0.6617187473954542,-0.5454412763559171,0.20318096288323542,0.14027292691053783,-0.8806540580248913,-1.0515465921807692,0.24458884886587337,-0.24084855167598293,0.6426735648667731,-0.137952089257516,-1.376163379083136,0.11352358804031255,-0.016887500996382386,0.03826053286588612,0.4445618425950451,0.08587752496864956,0.23875667333227316,0.17649053610803409,0.17485027032139852,0.030264159243262947,-0.6327225763244732,-0.6011813753351182,-1.289021297526297,-1.7299315434263152,-2.06690485910112,0.13950700740310926,-0.028887293573540553,0.1498280259313651],[0.19342999766033867,-0.7203458818094765,0.08518521966876198,0.07721644439128511,-0.17616439675758414,-0.23317272553912574,0.6731610374597188,-0.2643341536363797,0.37418526628857746,-0.5110331132848556,0.08403134611974397,0.15815519214110677,0.33155133832587586,-0.20782059429111918,0.3499352397881018,-0.2599946405346421,-0.057945523850759496,0.04139836842684763,0.3446183308591759,0.04567113444355042,0.29192936050109075,0.19214369963060832,-0.037156483545315484,-0.05925347065683486,0.3435261016223963,0.29074895126865796,0.26429123454001835,0.27077345261729124,-0.57640149225278,0.3548935124761061,-0.26459136636247294,0.4284680585118891],[0.5119363376631919,-0.013767084060794526,-0.00502299897314022,0.14528888204208568,0.414343711573937,0.14024387728424845,0.31892710472993957,0.15536093730729117,-0.5465042129459102,0.012675100487450817,0.18273405343788157,-0.13576729509445487,-0.024143828353034056,-0.19626481505023052,0.3081245488029792,-0.027158849846699463,0.24809810501362814,-0.12322648802784099,0.012719520324357483,-0.2637709726563626,0.3248777932211388,0.3480241096954794,-0.27353353317163576,0.363129279832717,-0.21784143953429,0.35139982148837734,-0.12396938144294661,-0.29643235810722784,-0.4063349703152793,-0.05810758710055698,-0.10113351995050862,-0.3444757453156065],[-0.186771835754973,-0.45479319421738273,-0.17250349147206134,-0.12806006184232932,-0.545966197821845,0.15458287244020358,-0.1926295118051664,0.016209797646614794,-0.21674907105746888,0.15139292218336373,0.14788743807653698,-0.3146356184218282,0.029566682753539464,-0.043051242732001116,0.3018894174314157,-0.060431129163260086,0.1920041339973396,-0.13149508103317273,-0.05888511784696802,-0.5398117542327898,0.20387511722987087,0.48308475409086665,-0.137375166793255,-0.14381247801577585,-0.0015780896955689579,-0.45443302759478515,-0.2660434598408922,-0.3558869784782648,0.22142559449021712,0.2620164017264824,-0.2327409483187239,0.2080416422571268]],"b2":[-0.2973729462658496,0.13426067055156066,0.05590395509707131,0.10341069239459187,-0.047331400278065774,0.022923614191133982,-0.2382585801431317,-0.04085417361367775,0.04247958326065508,0.2366012907599848,-0.4397564903394951,-0.05159532578108676,-0.012812851835465686,-0.06340235433461593,0.10049120706005125,0.378998029630879,-0.05909695133740126,-0.06102110341746108,-0.030761302815252422,0.2323635435421515,-0.5225370725093672,-0.21835581947817945,-0.03655650661899427,0.0023999228690436587,0.1915222928180996,-0.004115818734106239,0.5209323346283866,-0.032422468293831296,-0.00031966988967898594,0.025739951589752876,0.34440227621592273,-0.5529139888517076],"W3":[[0.19595310571665658],[0.16379614036891327],[-0.4277697052663283],[0.1519250761072418],[0.34760238096712187],[-0.1618536846902827],[0.37006441259532113],[-0.21459093804135168],[-0.1943510218224037],[-0.26270753093603666],[0.4608864662051623],[-0.2182259826916708],[0.12699902774327906],[0.18513458777083489],[-0.49751025657006887],[-0.19561242398174988],[1.3723962005451558],[-0.1889656054254814],[0.28496787617824204],[-1.2164496517040828],[0.4734542329784511],[0.3003461333243559],[0.135950763134304],[0.38940069689112694],[0.118430207554036],[-0.43933387901181764],[-0.6033830467283512],[0.287646231400473],[-0.48853709725073796],[0.18922870194088598],[0.15456700235120266],[0.659524457527616]],"b3":[-0.06771902305628763],"xm":[-2.108096805724306,287.2334943999651,-0.003189765071020939,-26.10085183759863,4.331988714284],"xsd":[167.86414587215094,285.020890456113,11.62270100328805,16.77069050018511,3.237554430615245],"ym":[16.633120587943765],"ysd":[13.278446863661333]}